// #### Generated By: http://www.cufonfonts.com ####
/*!
 * The following copyright notice may not be removed under any circumstances.
 * 
 * Copyright:
 * © 1993 Jeroen Klaver 2000 Shamrock Int.
 */
Cufon.registerFont({"w":578,"face":{"font-family":"Communist Italic","font-weight":400,"font-style":"italic","font-stretch":"normal","units-per-em":"1000","panose-1":"0 0 4 0 0 0 0 0 0 0","ascent":"800","descent":"-200","x-height":"13","bbox":"14 -780 1060 293","underline-thickness":"9","underline-position":"-55","slope":"-11","unicode-range":"U+0020-U+00FC"},"glyphs":{" ":{"w":333},"!":{"d":"234,-10v-42,39,-117,11,-111,-48v3,-35,34,-66,71,-66v59,0,81,76,40,114xm188,-705v39,-40,118,-12,110,47v-2,23,-27,166,-75,431r-43,0v-11,-265,-16,-408,-15,-431v1,-19,9,-34,23,-47","w":362},"\"":{"d":"239,-747v-1,76,-21,134,-36,196r-48,0r13,-196r71,0xm386,-747v-2,75,-21,134,-36,196r-49,0r13,-196r72,0","w":437},"$":{"d":"338,-276r-15,218v47,-13,85,-56,89,-111v3,-45,-21,-81,-74,-107xm297,-452r15,-211v-52,13,-80,47,-83,103v-3,45,20,81,68,108xm262,58r3,-50v-73,-4,-131,-23,-175,-58r7,-106r67,0r-4,59v28,22,71,39,110,43r17,-245v-114,-47,-173,-89,-167,-225v5,-114,80,-185,196,-195r4,-50r53,0r-4,49v72,4,124,22,157,53r-6,89r-67,0r3,-44v-19,-25,-50,-40,-90,-44r-17,239v119,52,178,81,178,214v0,124,-89,207,-208,220r-4,51r-53,0","w":570},"%":{"d":"427,-128v0,-115,55,-196,164,-196v98,0,146,64,140,166v-7,111,-52,167,-163,167v-94,0,-141,-46,-141,-137xm571,-40v74,0,82,-77,82,-154v0,-55,-22,-82,-65,-82v-74,0,-82,77,-82,154v0,55,22,82,65,82xm260,18r-47,-22r389,-725r47,22xm130,-521v0,-118,53,-199,164,-199v97,0,145,64,139,167v-7,112,-51,166,-162,166v-94,0,-141,-45,-141,-134xm274,-436v75,0,81,-77,81,-155v0,-53,-22,-80,-65,-80v-74,0,-81,76,-81,154v0,54,22,81,65,81","w":833},"'":{"d":"239,-747v-1,76,-21,134,-36,196r-48,0r13,-196r71,0","w":285},"(":{"d":"156,79v-77,-172,-45,-517,34,-664v48,-89,101,-135,167,-135r-4,53v-38,0,-66,45,-88,134v-20,82,-41,321,-41,444v0,148,24,222,73,222r-4,54v-59,0,-104,-36,-137,-108","w":378},")":{"d":"59,187r4,-54v38,0,66,-45,88,-133v20,-82,40,-322,41,-445v0,-148,-24,-222,-73,-222r4,-53v59,0,104,36,137,108v77,171,45,515,-34,664v-47,89,-101,135,-167,135","w":378},"*":{"d":"335,-606r50,97r-48,26r-48,-99r-61,98r-45,-27r63,-95r-111,2r4,-56r111,3r-51,-96r50,-27r47,98r62,-98r44,27r-64,96r112,-2r-4,55","w":506},"+":{"d":"286,-373r137,0r-3,53r-138,0r-10,138r-53,0r10,-138r-138,0r4,-53r137,0r10,-138r53,0","w":466},",":{"d":"122,-105v51,-46,131,-4,121,72v-9,69,-43,123,-116,158r-22,-36v36,-20,80,-60,81,-98v-33,42,-95,4,-86,-49v3,-18,8,-34,22,-47","w":333},"-":{"d":"307,-231r-196,0r5,-71r196,0","w":385},"\u2010":{"d":"307,-231r-196,0r5,-71r196,0","w":385},".":{"d":"218,-10v-42,39,-117,11,-111,-48v3,-35,35,-66,71,-66v59,0,81,76,40,114","w":330},"\/":{"d":"79,188r-50,-15r321,-901r51,15","w":382},"0":{"d":"94,-282v0,-251,50,-438,287,-438v179,0,236,100,236,291v0,252,-50,438,-287,438v-179,0,-236,-100,-236,-291xm220,-356v-8,144,-22,311,114,312v51,0,86,-26,112,-74v29,-54,51,-223,50,-341v-1,-123,-15,-208,-119,-208v-51,0,-88,25,-112,74v-22,47,-39,126,-45,237","w":666},"1":{"d":"271,-53r80,0r-3,53r-283,0r4,-53r85,0r42,-605r-85,0r4,-53r202,0","w":410},"2":{"d":"335,-720v117,0,200,48,196,152v-3,77,-35,150,-98,213r-254,253r253,0r4,-54r66,0r-10,156r-432,0r4,-58v89,-93,216,-221,277,-318v43,-69,66,-129,66,-180v0,-74,-31,-111,-93,-111v-53,0,-92,18,-119,53r-5,58r-66,0r7,-105v41,-39,109,-59,204,-59"},"3":{"d":"313,-720v145,1,220,48,211,191v-6,85,-43,140,-111,165v77,16,112,74,105,173v-8,129,-116,201,-256,200v-84,0,-149,-20,-196,-59r8,-106r66,0r-4,59v54,59,165,77,221,9v41,-50,55,-149,12,-207v-32,-43,-76,-45,-143,-43r4,-53v112,9,163,-19,172,-138v7,-92,-24,-138,-93,-138v-52,0,-92,18,-119,53r-4,58r-67,0r8,-105v40,-39,102,-59,186,-59","w":586},"4":{"d":"334,-249r21,-296r-245,296r224,0xm581,-196r-133,0r-10,143r67,0r-4,53r-251,0r4,-53r66,0r10,-143r-292,0r3,-53r390,-471r54,0r-33,471r133,0","w":631},"5":{"d":"169,-711r369,0r-11,155r-66,0r3,-53r-235,0r-14,191r83,0v176,0,259,67,250,202v-9,143,-106,225,-258,225v-84,0,-149,-20,-196,-59r8,-106r66,0r-4,59v55,61,163,74,220,9v44,-50,53,-162,11,-219v-44,-61,-154,-40,-251,-44","w":612},"6":{"d":"210,-218v0,107,20,174,116,174v91,0,137,-71,137,-212v0,-90,-38,-135,-113,-135v-85,0,-140,57,-140,173xm354,-444v161,0,239,66,229,226v-8,146,-105,229,-261,227v-175,-2,-233,-109,-233,-296v0,-253,60,-433,302,-433v73,0,136,16,189,48r-8,116r-66,0r4,-65v-60,-60,-202,-68,-244,19v-22,45,-40,116,-49,217v35,-39,80,-59,137,-59","w":641},"7":{"d":"131,-9r302,-600r-261,0r-4,53r-66,0r10,-155r429,0r-3,53r-348,676","w":531},"8":{"d":"462,-561v5,-71,-28,-106,-101,-106v-110,0,-154,106,-91,175v15,17,42,35,79,55v73,-43,110,-84,113,-124xm352,-720v119,0,192,48,186,160v-3,57,-44,110,-119,160v82,45,142,91,136,196v-7,133,-109,213,-257,213v-155,0,-229,-64,-220,-193v5,-65,49,-123,132,-175v-91,-61,-116,-217,-34,-299v41,-41,99,-62,176,-62xm278,-318v-107,67,-157,114,-108,216v17,35,59,49,112,49v100,0,153,-37,158,-112v3,-37,-13,-68,-48,-93v-7,-5,-45,-25,-114,-60","w":600},"9":{"d":"474,-493v0,-107,-21,-174,-116,-174v-90,0,-135,71,-135,212v0,90,37,135,111,135v85,0,140,-57,140,-173xm101,-464v0,-166,96,-256,261,-256v175,0,232,110,232,297v0,255,-60,431,-301,432v-73,0,-136,-16,-189,-48r8,-117r67,0r-5,66v61,59,202,68,244,-19v21,-45,40,-116,49,-217v-34,39,-80,59,-137,59v-153,0,-229,-66,-229,-197","w":641},":":{"d":"214,-10v-43,39,-115,11,-110,-48v3,-35,34,-66,71,-66v60,0,80,76,39,114xm244,-428v-42,39,-117,11,-111,-48v3,-34,34,-66,71,-66v59,0,81,76,40,114","w":329},";":{"d":"240,-428v-42,39,-116,11,-110,-48v3,-34,34,-66,71,-66v59,0,80,76,39,114xm122,-105v51,-46,131,-4,121,72v-9,69,-43,123,-116,158r-22,-36v36,-20,80,-60,81,-98v-33,42,-95,4,-86,-49v3,-18,8,-34,22,-47","w":329},"<":{"d":"180,-109r-40,-35r118,-124r-100,-125r44,-35r117,160","w":466},"=":{"d":"432,-236r-328,0r3,-53r329,0xm444,-404r-329,0r4,-54r329,0","w":510},"?":{"d":"260,-10v-42,39,-117,11,-111,-48v3,-35,34,-66,71,-66v59,0,81,76,40,114xm282,-720v-69,0,-120,17,-155,52r-6,90r67,0r4,-66v16,-12,45,-18,86,-18xm371,-549v-1,-80,-17,-112,-93,-113r4,-58v142,2,197,41,200,180v4,149,-80,252,-217,256r-4,53r-67,0r8,-107r64,0v74,9,107,-100,105,-211","w":519},"A":{"d":"218,-213r-56,160r66,0r-4,53r-195,0r4,-53r66,0r218,-605r-67,0r4,-53r181,0r142,658r67,0r-4,53r-256,0r3,-53r67,0r-34,-160r-202,0xm408,-267r-65,-303r-106,303r171,0","w":676},"B":{"d":"386,-711v135,0,198,50,189,182v-6,88,-47,143,-120,165v86,13,130,75,123,173v-8,125,-118,191,-256,191r-255,0r3,-53r67,0r43,-605r-67,0r4,-53r269,0xm279,-391v114,9,164,-16,174,-138v6,-86,-24,-129,-89,-129r-66,0xm255,-53v73,1,125,3,163,-41v43,-49,51,-146,8,-201v-34,-44,-81,-45,-151,-43","w":615},"C":{"d":"83,-292v0,-251,70,-426,306,-428v83,0,150,20,201,59r-7,105r-67,0r4,-58v-38,-35,-83,-53,-135,-53v-168,0,-181,203,-181,397v0,137,21,226,137,226v52,0,100,-18,143,-53r4,-59r67,0r-8,106v-57,39,-127,59,-210,59v-185,-2,-254,-105,-254,-301","w":616},"D":{"d":"645,-418v0,251,-66,417,-305,418r-273,0r3,-53r67,0r43,-605r-67,0r4,-53r273,0v187,1,255,99,255,293xm524,-441v0,-135,-22,-212,-138,-217r-88,0r-43,605r89,0v170,-5,180,-195,180,-388","w":676},"E":{"d":"255,-53r167,0r5,-80r67,0r-10,133r-417,0r3,-53r67,0r43,-605r-67,0r4,-53r413,0r-9,133r-67,0r6,-80r-162,0r-19,267r124,0r4,-53r67,0r-12,160r-66,0r3,-54r-124,0","w":568},"F":{"d":"403,-391r4,-53r67,0r-12,160r-66,0r3,-54r-124,0r-20,285r89,0r-4,53r-273,0r3,-53r67,0r43,-605r-67,0r4,-53r424,0r-9,133r-67,0r6,-80r-173,0r-19,267r124,0","w":532},"G":{"d":"83,-292v0,-251,70,-426,306,-428v83,0,150,20,201,59r-7,105r-67,0r4,-58v-38,-35,-83,-53,-135,-53v-168,0,-181,203,-181,397v0,137,21,226,137,226v47,0,85,-13,113,-40r14,-205r-66,0r3,-53r185,0r-21,292v-71,39,-149,59,-232,59v-185,-2,-254,-105,-254,-301","w":645},"H":{"d":"275,-338r-20,285r67,0r-4,53r-251,0r3,-53r67,0r43,-605r-67,0r4,-53r251,0r-4,53r-66,0r-19,267r278,0r18,-267r-66,0r3,-53r252,0r-4,53r-67,0r-43,605r67,0r-4,53r-251,0r4,-53r67,0r20,-285r-278,0","w":780},"I":{"d":"262,-53r66,0r-4,53r-251,0r4,-53r67,0r42,-605r-66,0r4,-53r251,0r-4,53r-67,0","w":398},"J":{"d":"262,-53v-6,128,-98,242,-229,240r4,-54v63,0,98,-62,107,-186r42,-605r-66,0r4,-53r251,0r-4,53r-67,0","w":398},"K":{"d":"601,-53r67,0r-4,53r-172,0r-170,-336r-51,54r-16,229r67,0r-4,53r-251,0r3,-53r67,0r43,-605r-67,0r4,-53r251,0r-4,53r-66,0r-21,294r271,-294r-66,0r4,-53r204,0r-4,53r-68,0r-208,226","w":695},"L":{"d":"398,-658r-100,0r-43,605r167,0r5,-80r67,0r-10,133r-417,0r3,-53r67,0r43,-605r-67,0r4,-53r284,0","w":520},"M":{"d":"662,-711r218,0r-3,53r-67,0r-43,605r67,0r-4,53r-250,0r4,-53r66,0r40,-570r-225,623r-98,0r-136,-627r-41,575r67,0r-4,53r-186,0r3,-53r67,0r43,-606r-67,0r4,-53r216,0r126,569","w":897},"N":{"d":"473,0r-245,-588r-38,535r67,0r-4,53r-186,0r3,-53r67,0r43,-605r-67,0r4,-53r191,0r237,570r37,-517r-67,0r4,-53r186,0r-3,53r-67,0r-47,658r-115,0","w":705},"O":{"d":"83,-292v0,-251,70,-428,306,-428v169,0,254,100,254,301v0,252,-69,428,-306,428v-185,0,-254,-105,-254,-301xm204,-270v0,137,21,226,137,226v55,0,95,-25,124,-72v34,-54,57,-206,56,-327v-1,-135,-21,-224,-136,-224v-168,0,-181,203,-181,397","w":676},"P":{"d":"279,-391v115,4,170,-31,178,-138v8,-116,-50,-139,-159,-129xm368,-711v150,2,221,38,212,182v-10,161,-119,192,-305,191r-20,285r107,0r-4,53r-291,0r3,-53r67,0r43,-605r-67,0r4,-53r251,0","w":592},"Q":{"d":"204,-270v0,137,21,226,137,226v55,0,95,-25,124,-72v34,-54,57,-206,56,-327v-1,-135,-21,-224,-136,-224v-168,0,-181,203,-181,397xm643,-418v0,234,-82,404,-241,422v1,86,29,129,82,129r-4,54v-111,1,-184,-80,-197,-182v-133,-18,-200,-117,-200,-297v0,-252,70,-428,306,-428v186,0,254,107,254,302","w":676},"R":{"d":"368,-711v150,2,219,38,212,182v-4,83,-72,159,-146,173v87,29,112,200,144,303r66,0r-4,53r-181,0v-25,-94,-31,-205,-74,-282v-26,-46,-54,-60,-110,-56r-20,285r107,0r-4,53r-291,0r3,-53r67,0r43,-605r-67,0r4,-53r251,0xm279,-391v115,4,170,-31,178,-138v8,-116,-50,-139,-159,-129","w":676},"S":{"d":"321,-720v91,0,151,18,178,53r-7,89r-66,0r3,-44v-28,-47,-141,-64,-187,-18v-56,57,-46,148,37,191r146,75v109,72,77,264,-13,334v-92,72,-268,57,-350,-10r7,-106r67,0r-4,59v59,47,155,66,210,11v56,-56,50,-146,-35,-186v-92,-43,-138,-71,-143,-75v-91,-63,-86,-248,-7,-318v40,-35,93,-55,164,-55","w":537},"T":{"d":"478,0r-318,0r4,-53r100,0r42,-605r-162,2r-5,78r-67,0r9,-133r576,0r-10,133r-66,0r5,-80r-162,0r-42,605r100,0","w":629},"U":{"d":"359,9v-152,1,-236,-77,-225,-231r31,-436r-67,0r4,-53r251,0r-3,53r-67,0r-31,436v-9,119,39,178,143,178v103,0,159,-59,168,-178r31,-436r-67,0r4,-53r187,0r-4,53r-67,0r-30,436v-11,154,-97,231,-258,231","w":702},"V":{"d":"370,-142r181,-516r-67,0r4,-53r196,0r-4,53r-67,0r-237,658r-98,0r-143,-658r-66,0r3,-53r257,0r-4,53r-67,0","w":656},"W":{"d":"747,-142r-112,-516xm747,-142r181,-516r-67,0r4,-53r195,0r-3,53r-67,0r-237,658r-98,0r-103,-492r-176,492r-98,0r-143,-658r-66,0r3,-53r257,0r-4,53r-67,0r112,516r181,-516r-67,0r4,-53r218,0r-4,53r-67,0","w":1032},"X":{"d":"304,-360r-124,-298r-76,0r4,-53r260,0r-4,53r-53,0r79,189r105,-189r-53,0r3,-53r223,0r-4,53r-110,0r-139,250r148,355r63,0r-4,53r-261,0r4,-53r67,0r-103,-247r-138,247r67,0r-4,53r-192,0r4,-53r66,0","w":678},"Y":{"d":"208,0r3,-53r63,0r20,-282r-135,-323r-63,0r4,-53r261,0r-4,53r-67,0r103,246r138,-246r-67,0r4,-53r192,0r-3,53r-67,0r-178,318r-20,287r68,0r-4,53r-248,0","w":646},"Z":{"d":"523,-658r-325,605r225,0r6,-80r67,0r-10,133r-423,0r3,-53r325,-605r-193,0r-6,80r-66,0r9,-133r392,0","w":564},"[":{"d":"147,-771r178,0r-4,53r-125,0r-63,902r125,0r-4,53r-178,0","w":334},"\\":{"d":"286,188r-195,-901r52,-15r196,901","w":391},"]":{"d":"216,237r-177,0r3,-53r125,0r63,-902r-125,0r4,-53r178,0","w":334},"^":{"d":"399,-636r-37,41r-117,-109r-132,109r-32,-41r168,-128","w":400},"_":{"d":"414,293r-400,0r5,-71r400,0","w":478},"`":{"d":"107,-704r40,-63r195,128r-30,47","w":356},"a":{"d":"310,-489v-73,0,-115,74,-126,222v-3,41,-4,75,-4,103v1,95,13,107,62,64v82,-74,118,-209,129,-367v-19,-15,-39,-22,-61,-22xm164,9v-111,1,-89,-146,-84,-262v8,-201,89,-284,288,-289v35,0,71,9,108,26r-26,393v-1,82,22,79,73,56r11,45v-58,21,-106,31,-143,31v-70,0,-47,-145,-32,-209r-7,0v-43,139,-105,209,-188,209"},"b":{"d":"263,-44v75,0,117,-74,127,-223v5,-60,12,-185,-18,-191v-50,17,-87,72,-113,130v-30,67,-49,159,-57,261v19,15,39,23,61,23xm409,-542v111,-1,89,146,84,262v-8,201,-88,284,-287,289v-36,0,-73,-9,-110,-27r39,-542v7,-104,-2,-112,-63,-84r-11,-45v52,-21,97,-31,134,-31v52,0,49,80,43,142r-24,245r7,0v43,-139,106,-209,188,-209"},"c":{"d":"296,-484v-105,0,-113,138,-113,266v0,111,27,167,81,167v45,0,89,-18,130,-53r18,46v-53,45,-130,67,-231,67v-73,0,-110,-69,-110,-207v0,-213,89,-345,296,-344v25,0,50,7,73,20r-32,83v-33,-30,-71,-45,-112,-45","w":476},"d":{"d":"310,-489v-74,0,-116,74,-126,222v-5,60,-12,185,18,191v51,-18,88,-71,114,-130v29,-67,48,-159,56,-261v-19,-15,-40,-22,-62,-22xm438,-720v61,0,47,78,43,142r-30,457v-1,81,23,76,73,54r10,45v-57,21,-105,31,-143,31v-69,0,-46,-146,-31,-209r-7,0v-43,139,-106,209,-189,209v-110,1,-88,-147,-83,-262v8,-195,79,-284,266,-289v13,0,23,1,29,4v6,-47,8,-131,-11,-120v-14,0,-30,5,-49,14r-11,-45v51,-21,95,-31,133,-31"},"e":{"d":"195,9v-105,0,-128,-69,-128,-192v0,-239,93,-359,278,-359v61,0,88,38,84,115v-7,122,-118,202,-252,218v-8,74,17,158,80,158v45,0,93,-16,143,-48r12,38v-73,47,-146,70,-217,70xm275,-489v-39,0,-64,25,-77,74v-6,22,-12,73,-17,153v78,-4,140,-45,144,-111v2,-36,4,-55,4,-56v0,-40,-18,-60,-54,-60","w":493},"f":{"d":"142,-533v1,-157,107,-205,266,-180r-35,77v-37,-21,-61,-31,-71,-31v-24,0,-39,13,-47,40v-4,12,-8,43,-11,94r110,0r0,57r-114,0v-20,218,-14,487,-77,654r-70,-9r44,-645r-65,0r0,-57r70,0","w":436},"g":{"d":"329,-489v-73,0,-115,74,-126,222v-4,61,-12,183,17,191v51,-18,88,-71,114,-130v30,-67,49,-159,56,-261v-19,-15,-39,-22,-61,-22xm196,187v-61,0,-146,-32,-143,-84v3,-39,31,-64,84,-75r14,26v-12,10,-18,21,-18,32v0,36,36,54,107,54v29,0,49,-14,64,-38v21,-32,56,-196,74,-302r-6,0v-43,139,-106,209,-189,209v-111,0,-88,-147,-83,-262v8,-201,88,-284,287,-289v35,0,71,9,108,26r-21,316v-11,167,-49,280,-113,337v-37,33,-92,50,-165,50"},"h":{"d":"399,-542v88,0,97,73,91,164r-17,257v-1,81,23,76,73,54r10,45v-57,21,-105,31,-143,31v-49,0,-47,-80,-43,-142r17,-253v-1,-83,-23,-87,-68,-48v-96,83,-124,252,-131,434r-103,0r39,-560v7,-106,-1,-112,-63,-84r-10,-45v51,-21,96,-31,134,-31v52,0,49,80,43,142r-24,245r7,0v43,-139,105,-209,188,-209","w":587},"i":{"d":"140,-689v0,-36,31,-67,67,-67v36,0,66,31,66,67v0,36,-30,66,-66,66v-36,0,-67,-30,-67,-66xm112,-70r27,-312v9,-104,-2,-112,-63,-84r-11,-46v55,-20,101,-30,139,-30v49,0,47,80,42,142r-22,281v-1,79,24,74,73,52r11,45v-61,21,-111,31,-148,31v-32,0,-53,-27,-48,-79","w":378},"j":{"d":"164,-689v0,-36,31,-67,67,-67v36,0,67,31,67,67v0,36,-31,66,-67,66v-36,0,-67,-30,-67,-66xm239,-53v-13,160,-85,240,-217,240r4,-54v95,-8,102,-74,110,-186r24,-329v7,-105,-2,-112,-64,-84r-10,-46v55,-20,101,-30,138,-30v50,0,48,79,43,142","w":378},"k":{"d":"185,-720v61,0,47,78,43,142r-17,249r185,-207r91,0r-187,208v80,-23,99,125,124,196v27,75,38,98,96,66r11,44v-57,21,-103,31,-137,31v-50,0,-48,-35,-67,-89v-23,-64,-48,-252,-123,-167r-16,247r-102,0r39,-560v7,-106,-2,-112,-63,-84r-11,-45v52,-21,97,-31,134,-31","w":573},"l":{"d":"108,-69r37,-491v8,-105,-1,-112,-63,-84r-10,-45v55,-21,101,-31,138,-31v50,0,48,80,43,142r-35,457v-1,81,23,76,73,54r11,45v-61,21,-110,31,-148,31v-31,0,-50,-26,-46,-78","w":382},"m":{"d":"680,-542v87,0,96,73,90,164r-17,256v-2,82,24,77,73,55r11,45v-58,21,-106,31,-143,31v-49,0,-48,-79,-44,-142r17,-253v-1,-83,-23,-87,-68,-48v-96,83,-124,252,-131,434r-102,0r26,-386v-1,-82,-23,-87,-67,-48v-95,84,-124,254,-133,434r-102,0r27,-382v7,-106,-2,-112,-63,-84r-11,-46v52,-20,97,-30,134,-30v81,0,41,143,32,209r7,0v43,-139,105,-209,188,-209v117,0,111,120,80,209r7,0v43,-139,106,-209,189,-209","w":871},"n":{"d":"400,-542v87,0,96,73,90,164r-17,256v-2,82,24,77,73,55r11,45v-58,21,-106,31,-143,31v-49,0,-48,-79,-44,-142r17,-253v-1,-83,-23,-87,-68,-48v-96,83,-124,252,-131,434r-102,0r26,-382v7,-106,-1,-112,-63,-84r-10,-46v51,-20,96,-30,134,-30v83,0,42,144,31,209r7,0v43,-139,106,-209,189,-209","w":587},"o":{"d":"60,-216v3,-224,83,-331,309,-326v98,2,132,112,131,230v-3,223,-83,330,-309,325v-97,-2,-132,-111,-131,-229xm362,-106v21,-49,41,-264,10,-330v-16,-35,-46,-53,-89,-53v-39,0,-66,22,-84,65v-21,50,-40,266,-11,330v16,36,45,54,88,54v40,0,68,-22,86,-66","w":551},"p":{"d":"271,-44v75,0,117,-74,127,-223v5,-60,12,-185,-18,-191v-50,17,-87,72,-113,130v-30,67,-49,159,-57,261v19,15,39,23,61,23xm417,-542v111,-1,89,146,84,262v-8,195,-79,284,-266,289v-13,0,-22,-1,-29,-4r-13,173r-102,0r39,-560v7,-106,-1,-112,-63,-84r-11,-46v52,-20,97,-30,135,-30v80,0,40,144,31,209r7,0v43,-139,106,-209,188,-209"},"q":{"d":"324,-489v-74,0,-116,74,-127,222v-4,62,-12,183,18,191v51,-18,88,-71,114,-130v29,-67,48,-159,56,-261v-19,-15,-39,-22,-61,-22xm178,9v-111,1,-89,-146,-84,-262v8,-201,88,-284,287,-289v36,0,72,9,109,26r-38,565v-3,72,31,69,70,44r14,45v-17,10,-139,28,-202,49r39,-387r-7,0v-43,139,-105,209,-188,209"},"r":{"d":"410,-428v-52,-54,-76,-30,-120,25v-56,71,-71,257,-78,403r-102,0r27,-412v1,-81,-23,-76,-73,-54r-10,-46v57,-20,102,-30,134,-30v55,0,60,101,43,158r7,0v42,-105,91,-158,147,-158v29,0,51,7,67,22","w":449},"s":{"d":"364,-425v-46,-39,-88,-59,-127,-59v-37,0,-65,40,-67,73v-16,59,176,110,178,125v73,54,76,178,2,237v-46,36,-108,58,-192,58v-30,0,-70,-15,-120,-45r43,-88v55,50,106,75,153,75v38,0,69,-38,72,-73v2,-34,-17,-61,-58,-80v-73,-34,-111,-52,-114,-54v-70,-50,-73,-179,-3,-237v37,-31,79,-49,131,-49v69,0,117,8,143,23","w":468},"t":{"d":"158,9v-69,0,-71,-69,-66,-142r25,-347r-64,0r0,-53r68,0r8,-116r104,-22r-10,138r124,0r0,53r-127,0r-26,373v-1,73,59,56,102,30r19,43v-49,29,-102,43,-157,43","w":391},"u":{"d":"188,9v-88,0,-98,-73,-91,-165r16,-226v7,-106,-1,-112,-63,-84r-10,-46v51,-20,96,-30,134,-30v50,0,47,79,43,142r-17,253v1,82,23,86,67,47v95,-83,124,-253,133,-433r102,0r-28,411v-1,82,23,77,73,55r11,45v-58,21,-106,31,-143,31v-70,-1,-46,-144,-32,-209r-7,0v-43,139,-105,209,-188,209","w":587},"v":{"d":"175,-542v58,0,51,59,48,142r-7,209v-2,112,12,143,69,91v90,-84,126,-247,107,-433r104,-23v7,186,-18,269,-96,409v-59,105,-125,156,-191,156v-69,0,-101,-55,-97,-165r8,-226v3,-105,-5,-112,-66,-84r-12,-46v51,-20,95,-30,133,-30","w":548},"w":{"d":"170,-542v60,1,51,76,48,142r-9,209v-4,117,24,147,79,75v48,-63,93,-162,93,-264v0,-23,-1,-74,-2,-153r109,0v-4,77,-4,227,4,314v15,174,54,178,122,72v61,-96,69,-271,33,-400r104,-26v34,164,2,320,-81,444v-61,92,-125,138,-192,138v-65,0,-77,-126,-81,-209r-7,0v-12,51,-128,217,-188,209v-63,-9,-100,-72,-97,-151r10,-240v4,-104,-5,-112,-66,-84r-12,-46v51,-20,95,-30,133,-30","w":822},"x":{"d":"503,-486v-26,-18,-53,-15,-76,20r-111,171r84,171v34,57,38,79,88,48r16,40v-56,29,-101,43,-134,43v-42,-13,-45,-41,-73,-98r-56,-115r-134,206r-71,2r170,-266r-69,-156v-32,-60,-31,-84,-74,-70r-7,-34v14,-4,105,-32,135,-5v38,35,65,125,90,181v41,-56,81,-146,135,-180v25,-16,75,-24,109,-3","w":543},"y":{"d":"186,-542v61,0,47,78,43,142r-16,251v1,84,22,88,68,49v96,-81,124,-252,131,-433r102,0r-23,333v-11,167,-49,280,-113,337v-37,33,-92,50,-165,50v-60,0,-146,-32,-142,-84v3,-39,30,-64,83,-75r14,26v-12,10,-18,21,-18,32v0,36,36,54,107,54v29,0,49,-14,65,-38v21,-32,56,-196,74,-302r-7,0v-43,139,-106,209,-189,209v-87,0,-96,-73,-90,-165r16,-226v7,-104,-2,-112,-63,-84r-11,-46v52,-20,97,-30,134,-30","w":587},"z":{"d":"162,-454v30,-2,131,52,164,30r-287,415r52,18v10,-18,27,-27,51,-27v33,-7,164,119,203,107v74,0,122,-46,145,-139r-39,-14v-25,40,-40,60,-45,60v-55,9,-159,-140,-228,-112r285,-407r-53,-21v-14,22,-31,33,-50,33v-21,0,-136,-39,-158,-35v-88,-5,-120,63,-99,144r48,-6v-8,-18,-12,-44,11,-46","w":533},"{":{"d":"156,79v-77,-172,-45,-517,34,-664v48,-89,101,-135,167,-135r-4,53v-38,0,-66,45,-88,134v-20,82,-41,321,-41,444v0,148,24,222,73,222r-4,54v-59,0,-104,-36,-137,-108","w":378},"|":{"d":"132,191r64,-915r53,0r-64,915r-53,0","w":329},"}":{"d":"59,187r4,-54v38,0,66,-45,88,-133v20,-82,40,-322,41,-445v0,-148,-24,-222,-73,-222r4,-53v59,0,104,36,137,108v77,171,45,515,-34,664v-47,89,-101,135,-167,135","w":378},"~":{"d":"210,-720v41,0,107,62,147,62v30,0,47,-14,52,-42r35,9v-17,54,-55,81,-112,81v-41,0,-107,-62,-147,-62v-30,0,-47,14,-52,42r-35,-9v17,-54,55,-81,112,-81","w":444},"\u00e7":{"d":"296,-484v-105,0,-113,138,-113,266v0,111,27,167,81,167v45,0,89,-18,130,-53r18,46v-33,29,-78,47,-130,57r-12,50v71,0,107,23,107,68v0,95,-118,90,-195,59r1,-44v38,17,69,26,93,26v27,0,40,-12,40,-35v-10,-47,-32,-35,-108,-38r22,-78v-125,17,-153,-42,-159,-205v-7,-213,89,-345,296,-344v25,0,50,7,73,20r-32,83v-33,-30,-71,-45,-112,-45","w":484},"\u00f6":{"d":"84,-689v0,-36,31,-67,67,-67v36,0,67,31,67,67v0,36,-31,66,-67,66v-36,0,-67,-30,-67,-66xm342,-689v0,-36,31,-67,67,-67v36,0,67,31,67,67v0,36,-31,66,-67,66v-36,0,-67,-30,-67,-66xm60,-216v3,-224,83,-331,309,-326v98,2,132,112,131,230v-3,223,-83,330,-309,325v-97,-2,-132,-111,-131,-229xm362,-106v21,-49,41,-264,10,-330v-16,-35,-46,-53,-89,-53v-39,0,-66,22,-84,65v-21,50,-40,266,-11,330v16,36,45,54,88,54v40,0,68,-22,86,-66","w":560},"\u00fc":{"d":"110,-689v0,-36,31,-67,67,-67v36,0,67,31,67,67v0,36,-31,66,-67,66v-36,0,-67,-30,-67,-66xm384,-689v0,-36,30,-67,66,-67v36,0,67,31,67,67v0,36,-31,66,-67,66v-36,0,-66,-30,-66,-66xm188,9v-88,0,-98,-73,-91,-165r16,-226v7,-106,-1,-112,-63,-84r-10,-46v51,-20,96,-30,134,-30v50,0,47,79,43,142r-17,253v1,82,23,86,67,47v95,-83,124,-253,133,-433r102,0r-28,411v-1,82,23,77,73,55r11,45v-58,21,-106,31,-143,31v-70,-1,-46,-144,-32,-209r-7,0v-43,139,-105,209,-188,209","w":638},"\u00a0":{"w":333}}});
/*!
 * The following copyright notice may not be removed under any circumstances.
 * 
 * Copyright:
 * © 1993 Jeroen Klaver 2000 Shamrock Int.
 */
Cufon.registerFont({"w":634,"face":{"font-family":"Communist SansBold","font-weight":400,"font-stretch":"normal","units-per-em":"1000","panose-1":"0 0 4 0 0 0 0 0 0 0","ascent":"800","descent":"-200","x-height":"13","bbox":"24 -756 1136 293","underline-thickness":"9","underline-position":"-55","unicode-range":"U+0020-U+00FC"},"glyphs":{" ":{"w":289},"!":{"d":"181,9v-59,0,-89,-25,-89,-76v0,-50,30,-75,89,-75v59,0,89,25,89,75v0,51,-30,76,-89,76xm270,-644v0,19,-11,163,-34,431r-109,0r-35,-431v0,-51,30,-76,89,-76v59,0,89,25,89,76","w":351},"(":{"d":"122,52v-76,-160,-76,-477,0,-637v43,-89,95,-135,162,-135r0,53v-68,0,-102,133,-102,400v0,267,34,400,102,400r0,54v-67,0,-120,-46,-162,-135","w":334},")":{"d":"58,187r0,-54v68,0,102,-133,102,-400v0,-267,-34,-400,-102,-400r0,-53v67,0,119,46,162,135v76,160,76,477,0,637v-43,89,-95,135,-162,135","w":333},"+":{"d":"249,-373r138,0r0,53r-138,0r0,138r-53,0r0,-138r-138,0r0,-53r138,0r0,-138r53,0r0,138","w":444},",":{"d":"157,-138v79,1,102,40,102,125v0,52,-29,98,-88,137r-87,0v71,-57,106,-99,106,-126v-49,31,-122,16,-122,-60v0,-51,30,-76,89,-76","w":317},"-":{"d":"280,-231r-196,0r0,-71r196,0r0,71","w":370},"\u2010":{"d":"280,-231r-196,0r0,-71r196,0r0,71","w":370},".":{"d":"162,-138v59,0,89,25,89,76v0,50,-30,75,-89,75v-59,0,-89,-25,-89,-75v0,-51,30,-76,89,-76","w":341},"0":{"d":"67,-356v0,-238,77,-368,302,-368v225,0,302,130,302,368v0,238,-76,369,-302,369v-226,0,-302,-132,-302,-369xm465,-152v32,-67,32,-341,0,-407v-36,-76,-157,-75,-193,1v-32,68,-32,339,0,406v37,76,157,77,193,0","w":736},"1":{"d":"172,0r0,-578r-97,36r0,-107r133,-62r142,0r0,711r-178,0","w":473},"2":{"d":"99,-662v144,-98,479,-97,478,115v0,69,-47,147,-140,234r-165,153r313,0r0,160r-508,0r0,-121r187,-199v79,-83,116,-151,116,-204v0,-59,-22,-88,-84,-88v-73,0,-139,20,-197,60r0,-110","w":664},"3":{"d":"560,-189v-1,139,-114,202,-264,202v-95,0,-173,-17,-236,-52r0,-106v56,33,124,49,203,49v72,0,117,-38,120,-106v4,-93,-77,-117,-181,-109r0,-107v94,6,163,-8,163,-100v0,-77,-26,-98,-102,-98v-53,0,-114,16,-185,47r0,-97v53,-39,128,-58,227,-58v144,-1,238,59,238,193v0,85,-42,141,-125,167v88,15,143,79,142,175","w":628},"4":{"d":"364,-267r0,-241r-190,241r190,0xm364,0r0,-160r-304,0r0,-128r341,-432r141,0r0,453r133,0r0,107r-133,0r0,160r-178,0","w":751},"5":{"d":"410,-213v-1,-77,-58,-111,-142,-111r-149,0r0,-387r413,0r0,155r-307,0r0,112r91,0v181,0,272,76,272,228v0,152,-113,231,-272,229v-83,0,-160,-19,-231,-56r0,-109v69,39,135,59,200,59v75,0,126,-46,125,-120","w":655},"6":{"d":"364,-369v-67,0,-100,44,-100,133v0,95,33,143,100,143v67,0,100,-46,100,-138v0,-92,-33,-138,-100,-138xm76,-356v0,-253,79,-365,324,-368v53,0,109,8,168,23r0,97v-53,-9,-110,-14,-172,-14v-93,0,-140,66,-140,198v30,-40,76,-60,137,-60v163,0,245,82,245,247v0,164,-92,246,-276,246v-221,0,-286,-131,-286,-369","w":711},"7":{"d":"211,27r-108,-67r292,-516r-329,0r0,-155r494,0r0,122","w":612},"8":{"d":"189,-189v0,76,54,115,135,115v129,0,169,-108,82,-170v-22,-16,-64,-40,-126,-71v-40,25,-91,74,-91,126xm343,-724v138,0,235,43,235,164v0,52,-31,101,-92,146v93,52,139,119,139,201v0,151,-95,226,-285,226v-177,0,-266,-69,-266,-206v0,-64,40,-122,119,-175v-77,-48,-100,-71,-100,-185v0,-114,83,-171,250,-171xm456,-552v3,-54,-41,-88,-98,-88v-99,0,-131,85,-67,132v17,13,51,30,102,51v37,-37,60,-46,63,-95","w":691},"9":{"d":"356,-342v67,0,100,-45,100,-134v0,-95,-33,-142,-100,-142v-67,0,-100,46,-100,138v0,92,33,138,100,138xm644,-356v0,257,-81,367,-332,369v-49,0,-113,-16,-192,-47r0,-108v79,33,145,49,200,49v96,0,144,-66,144,-198v-30,40,-76,60,-137,60v-163,0,-245,-82,-245,-247v0,-164,92,-246,276,-246v220,0,286,131,286,368","w":722},":":{"d":"169,-138v59,0,89,25,89,76v0,50,-30,75,-89,75v-59,0,-89,-25,-89,-75v0,-51,30,-76,89,-76xm169,-578v59,0,89,25,89,76v0,50,-30,75,-89,75v-59,0,-89,-25,-89,-75v0,-51,30,-76,89,-76","w":341},";":{"d":"169,-578v59,0,89,25,89,76v0,50,-30,75,-89,75v-59,0,-89,-25,-89,-75v0,-51,30,-76,89,-76xm159,-138v79,1,102,40,102,125v0,52,-29,98,-88,137r-87,0v71,-57,106,-99,106,-126v-49,31,-122,16,-122,-60v0,-51,30,-76,89,-76","w":341},"=":{"d":"387,-236r-329,0r0,-53r329,0r0,53xm387,-404r-329,0r0,-54r329,0r0,54","w":444},"?":{"d":"202,-141v62,0,93,25,93,75v0,51,-31,76,-93,76v-63,0,-94,-25,-94,-76v0,-50,31,-75,94,-75xm516,-498v-2,164,-93,220,-263,226r0,54r-106,0r0,-162v118,9,194,0,191,-118v-2,-69,-42,-120,-111,-120v-64,0,-117,11,-160,33r0,-116v205,-61,451,-5,449,203","w":549},"A":{"d":"407,-267r-83,-302r-84,302r167,0xm210,-160r-45,160r-138,0r205,-711r228,0r205,711r-185,0r-44,-160r-226,0","w":712},"B":{"d":"352,-98v71,0,106,-35,106,-106v0,-75,-37,-112,-111,-112r-69,0r0,218r74,0xm347,-413v53,2,85,-49,85,-103v0,-92,-63,-104,-154,-97r0,200r69,0xm640,-196v-6,160,-108,196,-288,196r-252,0r0,-711r265,0v166,0,249,62,249,187v0,81,-46,134,-138,160v85,14,167,75,164,168","w":689},"C":{"d":"250,-358v0,155,23,260,156,260v54,0,111,-18,170,-53r0,118v-46,28,-103,42,-170,42v-249,-3,-334,-111,-334,-367v0,-256,84,-364,334,-366v55,0,107,9,156,28r0,116v-53,-25,-105,-38,-156,-38v-132,0,-156,106,-156,260","w":641},"D":{"d":"376,-98v81,0,122,-86,122,-258v0,-171,-41,-257,-122,-257r-98,0r0,515r98,0xm676,-356v0,240,-73,356,-300,356r-276,0r0,-711r293,0v215,4,283,124,283,355","w":725},"E":{"d":"519,0r-418,0r0,-711r413,0r0,107r-235,0r0,191r200,0r0,106r-200,0r0,200r240,0r0,107","w":560},"F":{"d":"276,0r-178,0r0,-711r413,0r0,107r-235,0r0,191r200,0r0,106r-200,0r0,307","w":561},"G":{"d":"237,-356v0,157,22,263,155,263v21,0,47,-7,78,-20r0,-185r-67,0r0,-89r245,0r0,338v-100,41,-185,62,-256,62v-251,-2,-333,-112,-333,-369v0,-258,82,-365,333,-368v86,0,152,11,197,32r0,115v-65,-27,-131,-41,-197,-41v-133,0,-155,106,-155,262","w":703},"H":{"d":"264,-307r0,307r-178,0r0,-711r178,0r0,298r253,0r0,-298r178,0r0,711r-178,0r0,-307r-253,0","w":800},"I":{"d":"262,-711r0,711r-178,0r0,-711r178,0","w":344},"J":{"d":"301,-711r0,658v-3,175,-86,241,-271,240r0,-98v62,0,93,-47,93,-142r0,-658r178,0","w":386},"K":{"d":"496,-711r170,0r-222,265r266,446r-206,0r-182,-302r-50,61r0,241r-178,0r0,-711r178,0r0,271","w":732},"L":{"d":"96,-711r178,0r0,604r231,0r0,107r-409,0r0,-711","w":534},"M":{"d":"960,-711r0,711r-177,0r0,-553r-167,553r-202,0r-165,-553r0,553r-133,0r0,-711r272,0r149,563r155,-563r268,0","w":1068},"N":{"d":"92,-711r256,0r205,535r0,-535r134,0r0,711r-256,0r-205,-536r0,536r-134,0r0,-711","w":773},"O":{"d":"66,-356v0,-242,80,-368,311,-368v231,0,311,127,311,368v0,242,-79,369,-311,369v-232,0,-311,-127,-311,-369xm480,-155v35,-72,35,-330,0,-401v-39,-79,-167,-79,-206,0v-35,71,-35,330,0,401v39,80,167,80,206,0","w":746},"P":{"d":"348,-396v67,1,106,-41,106,-108v0,-73,-35,-109,-106,-109r-69,0r0,217r69,0xm370,-711v168,1,256,51,262,207v6,159,-143,219,-353,206r0,298r-178,0r0,-711r269,0","w":668},"Q":{"d":"356,-618v-122,0,-134,111,-134,262v0,93,12,159,30,201v35,81,167,80,206,0v35,-72,39,-331,0,-401v-22,-40,-54,-62,-102,-62xm444,5v8,63,19,99,79,102r0,80v-156,0,-240,-60,-252,-181v-166,-32,-227,-155,-227,-362v0,-242,80,-368,312,-368v231,0,311,127,311,368v0,209,-57,326,-223,361","w":689},"R":{"d":"431,-524v0,-95,-70,-91,-158,-89r0,200r69,0v59,0,89,-37,89,-111xm378,-711v151,3,231,43,231,187v0,92,-48,148,-144,167v56,27,85,75,112,143r84,214r-193,0v-34,-83,-103,-311,-157,-316r-38,0r0,316r-177,0r0,-711r282,0","w":684},"S":{"d":"552,-209v-1,153,-99,224,-258,223v-61,0,-130,-21,-209,-62r0,-127v73,55,140,82,199,82v69,0,104,-22,104,-67v0,-30,-27,-57,-81,-81v-77,-35,-126,-62,-149,-82v-54,-47,-81,-114,-81,-201v0,-133,91,-202,231,-200v79,0,144,14,195,42r0,122v-47,-39,-111,-58,-192,-58v-51,0,-77,22,-77,67v0,27,27,52,82,77v79,36,131,63,154,82v55,45,82,106,82,183","w":616},"T":{"d":"207,-604r-169,0r0,-107r515,0r0,107r-169,0r0,604r-177,0r0,-604","w":588},"U":{"d":"347,13v-172,0,-271,-84,-271,-253r0,-471r177,0r0,489v0,89,39,133,116,133v77,0,115,-44,115,-133r0,-489r134,0r0,471v0,169,-99,253,-271,253","w":704},"V":{"d":"527,-711r138,0r-210,711r-210,0r-207,-711r186,0r148,565","w":712},"W":{"d":"441,0r-228,0r-178,-711r197,0r131,555r141,-555r220,0r144,555r131,-555r137,0r-178,711r-235,0r-142,-531","w":1164},"X":{"d":"462,-711r151,0r-182,342r196,369r-201,0r-122,-229r-119,229r-150,0r195,-369r-182,-342r201,0r107,201","w":654},"Y":{"d":"235,-320r-208,-391r201,0r122,229r119,-229r150,0r-206,390r0,321r-178,0r0,-320","w":647},"Z":{"d":"597,-711r0,106r-310,498r315,0r0,107r-531,0r0,-98r317,-506r-296,0r0,-107r505,0","w":668},"_":{"d":"434,293r-400,0r0,-71r400,0r0,71","w":478},"`":{"d":"100,-656r30,-64r157,83r-23,49","w":537},"a":{"d":"359,-249v-89,2,-134,7,-134,80v0,91,74,78,134,29r0,-109xm276,-547v146,0,245,33,245,160r0,387r-153,0r0,-58v-55,47,-110,71,-167,71v-98,0,-147,-56,-147,-169v0,-63,17,-108,51,-133v43,-33,128,-49,254,-49v5,-72,-5,-107,-87,-106v-48,0,-107,18,-178,54r0,-103v53,-36,113,-54,182,-54","w":585},"b":{"d":"303,-84v95,0,89,-62,89,-183v0,-49,-1,-81,-4,-97v-13,-89,-91,-70,-143,-27r0,302v11,3,31,5,58,5xm563,-267v-1,195,-80,279,-273,280v-73,0,-142,-16,-207,-49r0,-675r162,0r0,231v48,-45,93,-67,134,-67v148,0,184,110,184,280","w":626},"c":{"d":"211,-267v0,110,11,183,98,183v51,0,102,-18,153,-54r0,102v-43,33,-94,49,-153,49v-173,1,-260,-104,-260,-280v0,-175,87,-281,260,-280v57,0,105,15,144,45r0,102v-54,-33,-102,-49,-144,-49v-86,0,-98,72,-98,182","w":526},"d":{"d":"238,-267v0,97,3,156,71,156v19,0,44,-10,75,-31r0,-294v-19,-9,-41,-13,-66,-13v-73,0,-80,79,-80,182xm67,-267v0,-195,54,-276,237,-280v22,0,49,6,80,18r0,-182r163,0r0,711r-154,0r0,-62v-53,50,-104,75,-151,75v-143,0,-175,-114,-175,-280","w":631},"e":{"d":"222,-222v1,98,18,133,107,133v63,0,123,-16,180,-49r0,102v-65,33,-132,49,-202,49v-171,0,-256,-93,-256,-280v0,-185,67,-280,242,-280v207,0,234,93,236,325r-307,0xm369,-311v1,-99,0,-133,-73,-133v-62,0,-75,56,-74,133r147,0","w":573},"f":{"d":"130,-533v-5,-168,118,-199,289,-187r0,96v-80,-10,-136,1,-127,91r98,0r0,97r-98,0r0,436r-162,0r0,-436r-75,0r0,-97r75,0","w":447},"g":{"d":"238,-289v-1,83,7,138,71,138v19,0,44,-13,75,-40r0,-242v-11,-12,-36,-18,-75,-18v-47,0,-71,54,-71,162xm304,-547v65,0,165,19,243,14r0,444v0,187,-86,280,-258,280v-61,0,-121,-15,-182,-44r0,-103v53,30,112,45,175,45v104,0,104,-90,102,-196v-47,51,-95,76,-142,76v-117,0,-175,-86,-175,-258v0,-181,63,-258,237,-258","w":624},"h":{"d":"391,-542v99,-1,180,49,180,142r0,400r-162,0r0,-364v0,-88,-101,-78,-156,-34r0,398r-162,0r0,-711r153,0r0,233v46,-43,95,-64,147,-64","w":657},"i":{"d":"182,-756v59,0,89,25,89,76v0,51,-30,76,-89,76v-59,0,-89,-25,-89,-76v0,-51,30,-76,89,-76xm98,0r0,-533r162,0r0,533r-162,0","w":355},"j":{"d":"24,89v95,-4,98,-35,98,-142r0,-480r162,0r0,435v-1,226,-45,277,-260,285r0,-98xm206,-756v63,0,94,25,94,76v0,51,-31,76,-94,76v-62,0,-93,-25,-93,-76v0,-51,31,-76,93,-76","w":380},"k":{"d":"429,-533r173,0r-186,186r200,347r-187,0r-132,-228r-51,51r0,177r-162,0r0,-711r162,0r0,360","w":648},"l":{"d":"110,0r0,-711r162,0r0,711r-162,0","w":363},"m":{"d":"709,-542v99,-1,180,49,180,142r0,400r-162,0r0,-364v0,-45,-22,-67,-67,-67v-23,0,-52,11,-89,33r0,398r-162,0r0,-364v0,-88,-101,-78,-156,-34r0,398r-162,0r0,-533r153,0r0,55v46,-43,95,-64,147,-64v78,0,132,24,161,72v48,-48,100,-72,157,-72","w":970},"n":{"d":"391,-542v99,-1,180,49,180,142r0,400r-162,0r0,-364v0,-88,-101,-78,-156,-34r0,398r-162,0r0,-533r153,0r0,55v46,-43,95,-64,147,-64","w":643},"o":{"d":"316,-547v179,0,268,93,268,280v0,187,-89,280,-268,280v-179,0,-269,-93,-269,-280v0,-187,90,-280,269,-280xm316,-89v92,0,107,-64,106,-178v0,-113,-13,-177,-106,-177v-94,0,-108,64,-107,177v0,115,13,178,107,178"},"p":{"d":"390,-267v0,-97,-3,-155,-71,-155v-19,0,-45,10,-76,31r0,293v19,9,42,14,67,14v73,0,80,-80,80,-183xm561,-267v0,194,-54,276,-238,280v-21,0,-48,-6,-80,-17r0,182r-162,0r0,-711r153,0r0,62v54,-51,104,-76,151,-76v142,0,176,115,176,280","w":612},"q":{"d":"235,-267v0,97,3,156,71,156v19,0,44,-10,75,-31r0,-291v-19,-12,-41,-18,-66,-18v-73,0,-80,81,-80,184xm301,-547v59,0,171,19,243,14r0,711r-163,0r0,-240v-47,50,-95,75,-142,75v-143,0,-175,-114,-175,-280v0,-195,54,-280,237,-280","w":628},"r":{"d":"390,-425v-58,-19,-104,-5,-147,52r0,373r-162,0r0,-533r153,0r0,71v44,-61,88,-91,156,-76r0,113","w":413},"s":{"d":"60,-376v0,-113,86,-173,209,-171v58,0,109,11,154,34r0,109v-32,-30,-85,-45,-159,-45v-43,0,-64,18,-64,53v0,18,22,34,66,47v121,37,188,67,188,191v0,114,-73,171,-220,171v-60,0,-115,-16,-164,-49r0,-115v43,43,93,64,150,64v47,-1,80,-8,87,-42v13,-60,-179,-101,-183,-115v-43,-29,-64,-73,-64,-132","w":504},"t":{"d":"273,-178v-4,82,34,103,111,85r0,102v-44,3,-73,4,-86,4v-152,-4,-187,-36,-187,-191r0,-258r-76,0r0,-97r76,0r0,-111r162,-45r0,156r124,0r0,97r-124,0r0,258","w":442},"u":{"d":"256,9v-99,1,-180,-49,-180,-142r0,-400r162,0r0,364v0,88,102,78,155,33r0,-397r163,0r0,533r-154,0r0,-56v-45,43,-94,65,-146,65"},"v":{"d":"406,-533r127,0r-143,533r-219,0r-143,-533r168,0r105,392","w":567},"w":{"d":"420,-533r158,0r114,403r103,-403r127,0r-143,533r-199,0r-101,-347r-101,347r-198,0r-143,-533r168,0r103,403","w":942},"x":{"d":"308,-404r74,-129r142,0r-146,251r163,282r-187,0r-91,-158r-91,158r-142,0r162,-280r-147,-253r189,0","w":571},"y":{"d":"327,-194r-117,-339r-171,0r168,489v28,78,0,136,-98,133r0,98v200,-6,228,-29,282,-187r182,-533r-129,0","w":605},"z":{"d":"500,-444r-233,342r241,0r0,102r-446,0r0,-88r234,-343r-212,0r0,-102r416,0r0,89","w":565},"\u00e7":{"d":"211,-267v0,110,11,183,98,183v51,0,102,-18,153,-54r0,102v-43,33,-94,49,-153,49v-173,1,-260,-104,-260,-280v0,-175,87,-281,260,-280v57,0,105,15,144,45r0,102v-54,-33,-102,-49,-144,-49v-86,0,-98,72,-98,182","w":526},"\u00f6":{"d":"316,-547v179,0,268,93,268,280v0,187,-89,280,-268,280v-179,0,-269,-93,-269,-280v0,-187,90,-280,269,-280xm316,-89v92,0,107,-64,106,-178v0,-113,-13,-177,-106,-177v-94,0,-108,64,-107,177v0,115,13,178,107,178xm171,-756v59,0,89,25,89,76v0,51,-30,76,-89,76v-59,0,-89,-25,-89,-76v0,-51,30,-76,89,-76xm455,-756v59,0,89,25,89,76v0,51,-30,76,-89,76v-59,0,-89,-25,-89,-76v0,-51,30,-76,89,-76"},"\u00fc":{"d":"256,9v-99,1,-180,-49,-180,-142r0,-400r162,0r0,364v0,88,102,78,155,33r0,-397r163,0r0,533r-154,0r0,-56v-45,43,-94,65,-146,65xm174,-756v59,0,89,25,89,76v0,51,-30,76,-89,76v-59,0,-89,-25,-89,-76v0,-51,30,-76,89,-76xm458,-756v59,0,89,25,89,76v0,51,-30,76,-89,76v-59,0,-89,-25,-89,-76v0,-51,30,-76,89,-76"},"\u00a0":{"w":289}}});
/*!
 * The following copyright notice may not be removed under any circumstances.
 * 
 * Copyright:
 * © 1993 Jeroen Klaver 2000 Shamrock Int.
 */
Cufon.registerFont({"w":378,"face":{"font-family":"Communist Sans","font-weight":400,"font-stretch":"normal","units-per-em":"1000","panose-1":"0 0 4 0 0 0 0 0 0 0","ascent":"800","descent":"-200","x-height":"11","bbox":"17 -780 988 293","underline-thickness":"9","underline-position":"-55","unicode-range":"U+0020-U+00FC"},"glyphs":{" ":{"w":222},"!":{"d":"100,-58v0,-36,31,-66,67,-66v36,0,67,30,67,66v0,36,-31,67,-67,67v-36,0,-67,-31,-67,-67xm232,-729r-23,518r-89,0r-22,-518r134,0","w":352},"\"":{"d":"187,-747v4,77,-11,134,-22,196r-49,0r0,-196r71,0xm333,-747v4,77,-11,134,-22,196r-49,0r0,-196r71,0","w":437},"$":{"d":"319,-58v45,-13,81,-55,81,-111v0,-45,-27,-81,-81,-107r0,218xm266,-452r0,-211v-51,13,-76,47,-76,103v0,45,25,81,76,108xm512,-213v6,126,-77,208,-193,220r0,51r-53,0r0,-50v-73,-4,-133,-23,-180,-58r0,-106r67,0r0,59v29,21,73,39,113,43r0,-245v-117,-47,-182,-90,-182,-225v0,-119,61,-184,182,-195r0,-50r53,0r0,49v72,4,126,22,161,53r0,89r-67,0r0,-44v-20,-25,-53,-40,-94,-44r0,239v123,52,187,81,193,214","w":570},"%":{"d":"417,-158v0,-100,53,-166,151,-166v99,0,152,65,152,166v0,116,-43,167,-152,167v-108,0,-151,-52,-151,-167xm568,-40v61,0,72,-43,72,-118v0,-76,-11,-118,-72,-118v-61,0,-71,44,-71,118v0,75,10,118,71,118xm261,18r-48,-22r338,-725r49,22xm92,-553v0,-101,54,-167,152,-167v97,0,151,67,151,167v0,115,-42,166,-151,166v-109,0,-152,-51,-152,-166xm244,-436v61,0,71,-43,71,-117v0,-75,-10,-118,-71,-118v-61,0,-72,43,-72,118v0,75,10,117,72,117","w":833},"'":{"d":"187,-747v4,77,-11,134,-22,196r-49,0r0,-196r71,0","w":285},"(":{"d":"152,56v-78,-162,-79,-484,0,-646v45,-92,101,-139,174,-139r0,85v-39,0,-69,41,-90,122v-34,129,-34,382,0,511v21,81,51,122,90,122r0,85v-73,0,-129,-47,-174,-140"},")":{"d":"233,-590v78,163,78,484,0,646v-45,92,-100,140,-173,140r0,-85v39,0,69,-41,90,-122v35,-130,35,-382,0,-511v-21,-81,-51,-122,-90,-122r0,-85v73,0,129,47,173,139"},"*":{"d":"292,-606r58,97r-46,26r-56,-99r-54,98r-46,-27r56,-95r-111,2r-1,-56r112,3r-57,-96r47,-27r54,98r55,-98r47,27r-58,96r112,-2r0,55","w":506},"+":{"d":"260,-373r137,0r0,53r-137,0r0,138r-54,0r0,-138r-138,0r0,-53r138,0r0,-138r54,0r0,138","w":466},",":{"d":"162,-124v50,0,79,39,78,91v0,70,-35,123,-104,158r-24,-36v49,-30,73,-63,73,-98v-31,43,-89,3,-89,-49v0,-36,30,-67,66,-66","w":333},"-":{"d":"291,-231r-196,0r0,-71r196,0r0,71","w":385},"\u2010":{"d":"291,-231r-196,0r0,-71r196,0r0,71","w":385},".":{"d":"103,-58v0,-36,31,-66,67,-66v36,0,66,30,66,66v0,36,-30,67,-66,67v-36,0,-67,-31,-67,-67","w":330},"\/":{"d":"92,188r-51,-15r259,-901r51,15","w":382},"0":{"d":"70,-356v0,-230,52,-364,261,-364v208,0,260,133,260,364v0,232,-52,365,-260,365v-208,0,-261,-134,-261,-365xm438,-149v33,-74,33,-339,0,-413v-40,-89,-174,-89,-214,0v-33,73,-33,340,0,413v40,89,174,89,214,0","w":666},"1":{"d":"156,0r0,-604r-67,35r0,-89r98,-53r89,0r0,711r-120,0","w":410},"2":{"d":"104,-660v50,-40,117,-60,200,-60v141,0,211,63,211,188v0,41,-16,85,-48,132v-38,57,-119,151,-242,284r296,0r0,116r-439,0r0,-89v147,-177,232,-281,253,-310v35,-48,52,-91,52,-130v0,-68,-34,-102,-101,-102v-52,0,-113,20,-182,59r0,-88","w":587},"3":{"d":"521,-191v0,210,-288,244,-444,151r0,-91v63,34,130,51,200,51v64,0,121,-58,120,-120v0,-69,-54,-123,-125,-120r-56,0r0,-89r61,0v63,1,102,-46,102,-111v0,-74,-34,-111,-102,-111v-65,0,-126,15,-182,45r0,-88v57,-31,117,-46,182,-46v148,0,227,51,227,191v0,85,-34,140,-103,165v80,16,120,74,120,173","w":595},"4":{"d":"360,-258r0,-288r-201,288r201,0xm359,0r0,-169r-311,0r0,-87r325,-464r104,0r0,462r129,0r0,89r-129,0r0,169r-118,0","w":631},"5":{"d":"411,-200v1,-77,-62,-133,-142,-133r-160,0r0,-378r380,0r0,115r-291,0r0,160r89,0v166,0,249,73,249,220v0,150,-99,226,-254,225v-71,0,-137,-16,-200,-49r0,-96v57,37,123,56,196,56v72,0,133,-52,133,-120","w":594},"6":{"d":"68,-356v0,-232,59,-364,273,-364v59,0,111,9,154,28r0,91v-57,-31,-227,-54,-267,15v-20,35,-34,95,-37,185v27,-41,74,-61,141,-61v157,0,236,78,236,235v0,134,-108,240,-245,236v-203,-6,-255,-139,-255,-365xm323,-374v-91,1,-125,51,-124,149v0,97,41,145,124,145v81,0,122,-49,122,-147v0,-98,-41,-147,-122,-147","w":641},"7":{"d":"63,-596r0,-115r429,0r0,79r-275,632r-106,0r257,-596r-305,0","w":531},"8":{"d":"321,-644v-60,0,-106,34,-106,90v0,81,50,104,123,129v59,-30,89,-72,89,-125v0,-63,-35,-94,-106,-94xm560,-199v0,140,-98,211,-247,211v-155,0,-233,-68,-233,-203v0,-75,37,-132,111,-170v-63,-37,-95,-99,-95,-185v0,-114,94,-176,220,-176v134,0,201,57,201,171v0,66,-32,117,-95,154v89,34,138,86,138,198xm176,-183v0,66,51,107,121,107v94,0,141,-33,141,-99v0,-104,-59,-110,-167,-151v-63,35,-95,83,-95,143","w":620},"9":{"d":"567,-356v0,233,-62,365,-278,365v-59,0,-119,-14,-179,-43r0,-92v78,45,237,78,294,0v24,-34,37,-96,40,-186v-38,42,-85,63,-142,63v-149,0,-235,-84,-235,-235v0,-133,108,-241,244,-236v207,6,256,134,256,364xm311,-337v92,-1,127,-51,126,-149v0,-97,-42,-145,-126,-145v-81,0,-122,49,-122,147v0,98,41,147,122,147","w":641},":":{"d":"100,-58v0,-36,30,-66,66,-66v36,0,67,30,67,66v0,36,-31,67,-67,67v-36,0,-66,-31,-66,-67xm100,-476v0,-35,30,-66,66,-66v36,0,67,31,67,66v0,36,-31,67,-67,67v-36,0,-66,-31,-66,-67","w":329},";":{"d":"96,-476v0,-35,31,-66,67,-66v36,0,67,31,67,66v0,36,-31,67,-67,67v-36,0,-67,-31,-67,-67xm162,-124v50,0,79,39,78,91v0,70,-35,123,-104,158r-24,-36v49,-30,73,-63,73,-98v-31,43,-89,3,-89,-49v0,-36,30,-67,66,-66","w":329},"=":{"d":"416,-236r-329,0r0,-53r329,0r0,53xm416,-404r-329,0r0,-54r329,0r0,54","w":510},"?":{"d":"154,-58v0,-36,31,-66,67,-66v36,0,67,30,67,66v0,36,-31,67,-67,67v-36,0,-67,-31,-67,-67xm343,-491v0,-107,-5,-145,-102,-145v-55,0,-110,16,-165,47r0,-84v48,-31,103,-47,165,-47v162,0,214,54,216,220v2,131,-71,222,-194,224r0,65r-89,0r0,-145r78,0v61,0,91,-45,91,-135","w":533},"A":{"d":"198,-182r-55,182r-94,0r218,-711r126,0r218,711r-126,0r-56,-182r-231,0xm404,-267r-90,-293r-90,293r180,0","w":672},"B":{"d":"307,-89v88,0,132,-36,132,-107v0,-83,-40,-124,-119,-124r-87,0r0,231r74,0xm417,-524v0,-54,-31,-98,-84,-98r-100,0r0,213r74,0v73,0,110,-38,110,-115xm408,-364v89,9,153,73,153,168v0,131,-85,196,-254,196r-194,0r0,-711r225,0v134,0,201,62,201,187v0,93,-44,146,-131,160","w":628},"C":{"d":"218,-356v0,170,30,274,178,274v60,0,120,-22,180,-67r0,107v-63,34,-123,51,-180,51v-227,-3,-303,-126,-303,-365v0,-239,76,-361,303,-364v61,0,118,16,171,49r0,111v-47,-46,-104,-69,-171,-69v-148,0,-178,104,-178,273","w":665},"D":{"d":"500,-356v0,-165,-24,-260,-168,-266r-116,0r0,533r98,0v156,-5,186,-92,186,-267xm623,-356v0,241,-77,353,-309,356r-218,0r0,-711r236,0v219,3,291,124,291,355","w":686},"E":{"d":"450,-409r0,89r-214,0r0,231r252,0r0,89r-372,0r0,-711r367,0r0,89r-247,0r0,213r214,0","w":560},"F":{"d":"121,0r0,-711r367,0r0,89r-247,0r0,213r214,0r0,89r-214,0r0,320r-120,0","w":554},"G":{"d":"204,-356v0,170,31,274,178,274v49,0,89,-11,122,-32r0,-166r-66,0r0,-89r186,0r0,318v-80,40,-161,60,-242,60v-227,0,-300,-125,-300,-365v0,-239,73,-364,300,-364v73,0,139,16,196,49r0,108v-67,-44,-132,-66,-196,-66v-148,0,-178,107,-178,273","w":705},"H":{"d":"517,0r0,-320r-291,0r0,320r-120,0r0,-711r120,0r0,302r291,0r0,-302r120,0r0,711r-120,0","w":746},"I":{"d":"268,-711r0,711r-120,0r0,-711r120,0","w":400},"J":{"d":"77,98v88,-3,94,-52,94,-151r0,-658r120,0r0,631v-6,188,-35,265,-214,267r0,-89","w":440},"K":{"d":"236,-391r0,-320r-120,0r0,711r120,0r0,-255r70,-80r198,335r139,0r-254,-431r243,-280r-118,0","w":676},"L":{"d":"484,0r-353,0r0,-711r120,0r0,622r233,0r0,89","w":535},"M":{"d":"202,-600r0,600r-89,0r0,-711r181,0r171,560r171,-560r180,0r0,711r-120,0r0,-600r-184,600r-126,0","w":923},"N":{"d":"466,0r-267,-544r0,544r-93,0r0,-711r146,0r265,544r0,-544r93,0r0,711r-144,0","w":710},"O":{"d":"78,-356v0,-233,76,-365,294,-365v218,0,293,134,293,365v0,233,-75,366,-293,366v-217,0,-294,-133,-294,-366xm372,-82v142,0,168,-108,168,-274v0,-168,-26,-273,-168,-273v-143,0,-169,107,-169,273v0,167,26,274,169,274","w":739},"P":{"d":"424,-498v0,-85,-30,-124,-116,-124r-82,0r0,249r69,0v95,-2,129,-30,129,-125xm106,0r0,-711r211,0v154,0,231,71,231,213v0,167,-126,227,-322,214r0,284r-120,0","w":595},"Q":{"d":"348,-82v142,0,169,-108,169,-274v0,-164,-26,-273,-169,-273v-143,0,-169,109,-169,273v0,167,27,274,169,274xm348,-721v218,0,293,133,293,365v0,217,-75,337,-225,361v0,56,35,96,91,95r0,87v-119,2,-216,-65,-215,-180v-158,-21,-237,-142,-237,-363v0,-233,75,-365,293,-365","w":698},"R":{"d":"417,-524v0,-54,-31,-98,-84,-98r-109,0r0,213r83,0v73,0,110,-38,110,-115xm539,-524v0,81,-62,145,-131,161v34,12,67,62,99,149r79,214r-129,0r-79,-217v-39,-96,-56,-110,-154,-103r0,320r-120,0r0,-711r234,0v134,0,201,62,201,187","w":632},"S":{"d":"537,-218v0,135,-111,228,-245,227v-82,0,-153,-21,-212,-63r-1,-103v85,50,154,75,207,75v70,1,130,-30,130,-94v0,-45,-29,-80,-88,-105r-163,-67v-59,-37,-88,-95,-88,-172v0,-125,94,-200,228,-200v64,0,124,18,181,53r0,115v-65,-51,-127,-77,-186,-77v-72,0,-108,28,-108,85v0,45,29,82,89,106r167,66v59,35,89,86,89,154","w":599},"T":{"d":"517,-622r-184,0r0,622r-120,0r0,-622r-185,0r0,-89r489,0r0,89","w":559},"U":{"d":"338,9v-153,0,-255,-82,-254,-231r0,-489r120,0r0,480v0,99,50,149,149,149v99,0,149,-50,149,-149r0,-480r89,0r0,489v1,147,-101,231,-253,231","w":667},"V":{"d":"376,0r-126,0r-218,-711r126,0r171,560r171,-560r94,0","w":615},"W":{"d":"348,0r-133,0r-176,-711r126,0r136,560r171,-560r111,0r171,560r138,-560r96,0r-180,711r-133,0r-164,-532","w":1029},"X":{"d":"290,-278r-146,278r-101,0r197,-372r-180,-339r136,0r131,247r132,-247r100,0r-183,338r198,373r-136,0","w":601},"Y":{"d":"368,-324r0,324r-120,0r0,-325r-206,-386r136,0r148,278r146,-278r101,0","w":600},"Z":{"d":"393,-622r-270,0r0,-89r416,0r0,75r-304,547r307,0r0,89r-450,0r0,-76","w":615},"[":{"d":"93,-771r178,0r0,53r-125,0r0,902r125,0r0,53r-178,0r0,-1008","w":334},"\\":{"d":"300,188r-259,-901r51,-15r259,901","w":391},"]":{"d":"233,237r-178,0r0,-53r125,0r0,-902r-125,0r0,-53r178,0r0,1008","w":334},"^":{"d":"355,-636r-35,41r-124,-109r-125,109r-35,-41r160,-128","w":400},"_":{"d":"434,293r-400,0r0,-71r400,0r0,71","w":478},"`":{"d":"100,-656r30,-64r157,83r-23,49","w":537},"a":{"d":"278,-249v-67,0,-94,14,-94,76v0,59,13,81,74,80v26,0,61,-13,106,-40r0,-120v-28,3,-57,4,-86,4xm67,-173v0,-122,64,-160,195,-160v41,0,75,1,102,4r0,-84v-3,-27,-30,-40,-80,-40v-47,0,-106,16,-177,49r0,-94v53,-29,113,-44,182,-44v127,0,191,53,191,158r0,384r-107,0r0,-64v-54,49,-107,73,-160,73v-97,0,-146,-61,-146,-182","w":556},"b":{"d":"400,-267v0,-111,-6,-184,-93,-184v-30,0,-66,14,-107,42r0,313v31,17,62,25,93,25v101,0,107,-72,107,-196xm520,-276v0,183,-59,285,-231,285v-66,0,-134,-16,-205,-47r0,-673r116,0r0,231v45,-41,94,-62,147,-62v115,0,173,89,173,266","w":588},"c":{"d":"306,-453v-93,0,-117,77,-116,186v0,127,37,191,111,191v47,0,102,-14,167,-42r0,85v-61,28,-124,42,-189,42v-139,0,-209,-92,-209,-276v0,-183,77,-275,231,-275v69,0,122,11,160,34r0,91v-41,-24,-92,-36,-155,-36","w":545},"d":{"d":"196,-258v0,109,6,174,93,174v31,0,66,-15,107,-45r0,-318v-21,-7,-53,-11,-94,-11v-104,0,-106,74,-106,200xm76,-258v0,-186,57,-281,231,-284v25,0,55,5,89,15r0,-184r115,0r0,711r-107,0r0,-62v-51,47,-103,71,-155,71v-115,0,-173,-89,-173,-267","w":607},"e":{"d":"178,-224v4,94,29,148,115,148v53,0,113,-14,180,-42r0,82v-65,30,-133,45,-202,45v-141,0,-211,-92,-211,-276v0,-178,56,-272,220,-275v139,-3,208,80,208,244r0,74r-310,0xm373,-309v0,-99,-11,-149,-93,-149v-89,0,-98,49,-102,149r195,0","w":559},"f":{"d":"158,-533v-1,-145,30,-181,164,-187v16,0,39,2,69,7r0,80v-38,-7,-92,-1,-103,13v-9,11,-15,40,-15,87r111,0r0,84r-111,0r0,449r-115,0r0,-449r-80,0r0,-84r80,0","w":467},"g":{"d":"302,-462v-100,0,-106,67,-106,182v0,108,-2,160,93,160v31,0,66,-15,107,-44r0,-287v-21,-7,-53,-11,-94,-11xm76,-276v0,-175,63,-264,231,-266v25,0,93,3,204,9r0,462v2,158,-67,258,-211,258v-87,0,-145,-13,-175,-38r0,-83v37,24,89,36,158,36v92,0,128,-80,121,-200v-51,47,-103,71,-155,71v-125,0,-174,-108,-173,-249","w":590},"h":{"d":"380,-333v-5,-90,-1,-118,-87,-118v-35,0,-70,14,-104,42r0,409r-116,0r0,-711r116,0r0,231v45,-41,100,-62,167,-62v93,0,140,62,140,186r0,356r-116,0r0,-333","w":567},"i":{"d":"95,-689v0,-36,31,-67,67,-67v36,0,66,31,66,67v0,36,-30,66,-66,66v-36,0,-67,-30,-67,-66xm103,0r0,-533r116,0r0,533r-116,0","w":308},"j":{"d":"127,-689v0,-36,31,-67,67,-67v36,0,66,31,66,67v0,36,-30,66,-66,66v-36,0,-67,-30,-67,-66xm36,102v92,-5,98,-46,98,-155r0,-480r116,0r0,480v-1,168,-54,237,-214,240r0,-85","w":351},"k":{"d":"202,-222r0,222r-115,0r0,-711r115,0r0,370r192,-192r119,0r-184,184r203,349r-134,0r-152,-266","w":573},"l":{"d":"97,0r0,-711r116,0r0,711r-116,0","w":300},"m":{"d":"368,-333v-6,-88,3,-117,-78,-118v-32,0,-64,14,-95,42r0,409r-116,0r0,-533r107,0r0,60v61,-78,240,-107,280,3v32,-37,107,-72,173,-72v87,0,131,62,131,186r0,356r-115,0r0,-333v-6,-88,3,-117,-78,-118v-31,0,-64,14,-97,42v10,126,1,275,4,409r-116,0r0,-333","w":822},"n":{"d":"385,-333v-5,-90,-1,-118,-87,-118v-35,0,-70,14,-104,42r0,409r-116,0r0,-533r107,0r0,60v45,-46,103,-69,175,-69v93,0,140,62,140,186r0,356r-115,0r0,-333","w":581},"o":{"d":"304,-544v158,0,237,92,237,277v0,185,-79,278,-237,278v-159,0,-238,-93,-238,-278v0,-185,79,-277,238,-277xm304,-73v102,0,122,-74,122,-194v0,-119,-20,-193,-122,-193v-101,0,-123,74,-123,193v0,121,21,194,123,194","w":596},"p":{"d":"409,-276v0,-108,-6,-173,-93,-173v-30,0,-66,15,-107,45r0,308v21,13,52,20,93,20v103,0,107,-75,107,-200xm93,178r0,-711r107,0r0,62v51,-47,103,-71,156,-71v115,0,173,89,173,266v0,190,-77,285,-231,285v-26,0,-56,-7,-89,-20r0,189r-116,0","w":588},"q":{"d":"196,-262v0,109,6,178,93,178v31,0,66,-15,107,-45r0,-322v-21,-7,-53,-11,-94,-11v-105,0,-106,73,-106,200xm76,-258v0,-186,57,-281,231,-284v25,0,93,3,204,9r0,711r-107,0r0,-240v-51,47,-103,71,-155,71v-115,0,-173,-89,-173,-267","w":607},"r":{"d":"354,-440v-71,-24,-112,-10,-153,58r0,382r-116,0r0,-533r107,0r0,75v56,-68,84,-93,162,-78r0,96","w":384},"s":{"d":"443,-162v0,110,-76,172,-189,171v-63,0,-123,-15,-178,-45r0,-89v61,33,113,49,156,49v135,0,120,-100,33,-132r-126,-47v-45,-27,-67,-70,-67,-129v1,-104,68,-160,177,-158v57,0,109,13,156,38r1,89v-40,-29,-88,-43,-143,-43v-58,0,-87,19,-87,56v-13,59,195,100,198,113v46,29,69,71,69,127","w":517},"t":{"d":"285,9v-131,-5,-165,-49,-164,-191r0,-267r-62,0r0,-84r62,0r0,-111r115,-45r0,156r114,0r0,84r-114,0r0,267v-9,97,38,114,118,101r0,79v-28,7,-51,11,-69,11","w":403},"u":{"d":"196,-200v5,90,1,118,87,118v35,0,70,-14,104,-42r0,-409r116,0r0,533r-107,0r0,-60v-45,46,-103,69,-176,69v-93,0,-140,-62,-140,-187r0,-355r116,0r0,333","w":571},"v":{"d":"417,-533r89,0r-174,533r-138,0r-173,-533r122,0r137,422","w":516},"w":{"d":"543,0r-110,-380r-109,380r-144,0r-154,-533r121,0r121,423r121,-423r121,0r120,423r122,-423r88,0r-153,533r-144,0","w":859},"x":{"d":"255,-196r-113,196r-97,0r161,-280r-146,-253r132,0r98,169r98,-169r97,0r-146,253r162,280r-133,0","w":542},"y":{"d":"178,-34r-161,-499r122,0r137,422r136,-422r89,0r-160,489v-33,101,-64,163,-90,192v-27,30,-101,43,-163,34r0,-82v52,7,106,1,106,-56v0,-20,-5,-46,-16,-78","w":519},"z":{"d":"204,-84r250,0r0,84r-395,0r0,-70r237,-379r-216,0r0,-84r360,0r0,71","w":513},"{":{"d":"149,52v-70,-156,-70,-481,0,-637v40,-89,91,-135,157,-135r0,53v-62,0,-93,133,-93,400v0,267,31,400,93,400r0,54v-66,0,-117,-46,-157,-135"},"|":{"d":"145,191r0,-915r54,0r0,915r-54,0","w":329},"}":{"d":"72,187r0,-54v63,0,94,-133,94,-400v0,-267,-31,-400,-94,-400r0,-53v66,0,118,46,158,135v71,157,71,481,0,637v-40,89,-92,135,-158,135"},"~":{"d":"160,-720v39,0,112,62,151,62v28,0,44,-14,49,-42r36,9v-14,54,-50,81,-107,81v-39,0,-112,-62,-151,-62v-28,0,-44,14,-49,42r-36,-9v14,-54,50,-81,107,-81","w":444},"\u00e7":{"d":"306,-453v-93,0,-117,77,-116,186v0,127,37,191,111,191v47,0,102,-14,167,-42r0,85v-45,22,-109,38,-166,41r-10,41v71,0,107,23,107,68v0,95,-118,90,-195,59r0,-44v38,17,69,26,94,26v27,0,40,-12,40,-35v-10,-47,-32,-35,-108,-38r21,-77v-121,-13,-181,-104,-181,-275v0,-183,77,-275,231,-275v69,0,122,11,160,34r0,91v-41,-24,-92,-36,-155,-36","w":545},"\u00f6":{"d":"96,-689v0,-36,30,-67,66,-67v36,0,67,31,67,67v0,36,-31,66,-67,66v-36,0,-66,-30,-66,-66xm384,-689v0,-36,31,-67,67,-67v36,0,67,31,67,67v0,36,-31,66,-67,66v-36,0,-67,-30,-67,-66xm304,-544v158,0,237,92,237,277v0,185,-79,278,-237,278v-159,0,-238,-93,-238,-278v0,-185,79,-277,238,-277xm304,-73v102,0,122,-74,122,-194v0,-119,-20,-193,-122,-193v-101,0,-123,74,-123,193v0,121,21,194,123,194","w":596},"\u00fc":{"d":"81,-689v0,-36,31,-67,67,-67v36,0,67,31,67,67v0,36,-31,66,-67,66v-36,0,-67,-30,-67,-66xm367,-689v0,-36,30,-67,66,-67v36,0,67,31,67,67v0,36,-31,66,-67,66v-36,0,-66,-30,-66,-66xm196,-200v5,90,1,118,87,118v35,0,70,-14,104,-42r0,-409r116,0r0,533r-107,0r0,-60v-45,46,-103,69,-176,69v-93,0,-140,-62,-140,-187r0,-355r116,0r0,333","w":571},"\u00a0":{"w":222}}});
/*!
 * The following copyright notice may not be removed under any circumstances.
 * 
 * Copyright:
 * © 1993 Jeroen Klaver 2000 Shamrock Int.
 */
Cufon.registerFont({"w":676,"face":{"font-family":"Communist","font-weight":400,"font-stretch":"normal","units-per-em":"1000","panose-1":"0 0 4 0 0 0 0 0 0 0","ascent":"800","descent":"-200","x-height":"13","bbox":"22 -780 1010 293","underline-thickness":"9","underline-position":"-55","unicode-range":"U+0020-U+00FC"},"glyphs":{" ":{"w":222},"!":{"d":"119,-58v0,-36,30,-66,66,-66v36,0,67,30,67,66v0,36,-31,67,-67,67v-36,0,-66,-31,-66,-67xm185,-724v36,0,68,30,67,66v0,23,-15,166,-45,431r-43,0v-30,-265,-45,-408,-45,-431v-1,-36,30,-66,66,-66","w":362},"\"":{"d":"187,-747v4,77,-11,134,-22,196r-49,0r0,-196r71,0xm333,-747v4,77,-11,134,-22,196r-49,0r0,-196r71,0","w":437},"$":{"d":"319,-58v45,-13,81,-55,81,-111v0,-45,-27,-81,-81,-107r0,218xm266,-452r0,-211v-51,13,-76,47,-76,103v0,45,25,81,76,108xm512,-213v6,126,-77,208,-193,220r0,51r-53,0r0,-50v-73,-4,-133,-23,-180,-58r0,-106r67,0r0,59v29,21,73,39,113,43r0,-245v-117,-47,-182,-90,-182,-225v0,-119,61,-184,182,-195r0,-50r53,0r0,49v72,4,126,22,161,53r0,89r-67,0r0,-44v-20,-25,-53,-40,-94,-44r0,239v123,52,187,81,193,214","w":570},"%":{"d":"417,-158v0,-100,53,-166,151,-166v99,0,152,65,152,166v0,116,-43,167,-152,167v-108,0,-151,-52,-151,-167xm568,-40v61,0,72,-43,72,-118v0,-76,-11,-118,-72,-118v-61,0,-71,44,-71,118v0,75,10,118,71,118xm261,18r-48,-22r338,-725r49,22xm92,-553v0,-101,54,-167,152,-167v97,0,151,67,151,167v0,115,-42,166,-151,166v-109,0,-152,-51,-152,-166xm244,-436v61,0,71,-43,71,-117v0,-75,-10,-118,-71,-118v-61,0,-72,43,-72,118v0,75,10,117,72,117","w":833},"'":{"d":"187,-747v4,77,-11,134,-22,196r-49,0r0,-196r71,0","w":285},"(":{"d":"149,52v-70,-156,-70,-481,0,-637v40,-89,91,-135,157,-135r0,53v-62,0,-93,133,-93,400v0,267,31,400,93,400r0,54v-66,0,-117,-46,-157,-135","w":378},")":{"d":"72,187r0,-54v63,0,94,-133,94,-400v0,-267,-31,-400,-94,-400r0,-53v66,0,118,46,158,135v71,157,71,481,0,637v-40,89,-92,135,-158,135","w":378},"*":{"d":"292,-606r58,97r-46,26r-56,-99r-54,98r-46,-27r56,-95r-111,2r-1,-56r112,3r-57,-96r47,-27r54,98r55,-98r47,27r-58,96r112,-2r0,55","w":506},"+":{"d":"260,-373r137,0r0,53r-137,0r0,138r-54,0r0,-138r-138,0r0,-53r138,0r0,-138r54,0r0,138","w":466},",":{"d":"162,-124v50,0,79,39,78,91v0,70,-35,123,-104,158r-24,-36v49,-30,73,-63,73,-98v-31,43,-89,3,-89,-49v0,-36,30,-67,66,-66","w":333},"-":{"d":"291,-231r-196,0r0,-71r196,0r0,71","w":385},"\u2010":{"d":"291,-231r-196,0r0,-71r196,0r0,71","w":385},".":{"d":"103,-58v0,-36,31,-66,67,-66v36,0,66,30,66,66v0,36,-30,67,-66,67v-36,0,-67,-31,-67,-67","w":330},"\/":{"d":"92,188r-51,-15r259,-901r51,15","w":382},"0":{"d":"72,-356v0,-231,50,-364,259,-364v208,0,258,133,258,364v0,233,-50,365,-258,365v-208,0,-259,-134,-259,-365xm438,-118v32,-79,32,-396,0,-475v-39,-96,-175,-96,-214,0v-32,79,-32,397,0,475v39,96,175,96,214,0","w":666},"1":{"d":"268,-53r80,0r0,53r-283,0r0,-53r85,0r0,-605r-85,0r0,-53r203,0r0,658","w":410},"2":{"d":"285,-720v116,0,207,49,207,152v0,77,-24,151,-83,213r-237,253r253,0r0,-54r67,0r0,156r-432,0r0,-58v130,-153,209,-250,238,-291v47,-68,71,-128,71,-180v0,-92,-34,-138,-102,-138v-52,0,-90,18,-115,53r0,58r-67,0r0,-105v39,-39,105,-59,200,-59","w":578},"3":{"d":"383,-191v0,-78,-49,-148,-125,-147r-56,0r0,-53v110,9,163,-18,163,-138v0,-92,-34,-138,-102,-138v-53,0,-91,18,-116,53r0,58r-67,0r0,-105v38,-39,99,-59,183,-59v146,1,223,50,224,191v0,85,-33,140,-100,165v79,16,118,74,118,173v1,132,-106,202,-242,200v-84,0,-151,-20,-200,-59r0,-106r66,0r0,59v37,35,81,53,134,53v74,1,120,-69,120,-147","w":586},"4":{"d":"316,-249r0,-296r-224,296r224,0xm568,-196r-134,0r0,143r67,0r0,53r-251,0r0,-53r66,0r0,-143r-292,0r0,-53r357,-471r53,0r0,471r134,0r0,53","w":631},"5":{"d":"411,-191v0,-93,-50,-160,-143,-160r-148,0r0,-360r368,0r0,155r-66,0r0,-53r-236,0r0,191r82,0v177,0,265,67,265,202v1,146,-93,226,-242,225v-84,0,-151,-20,-200,-59r0,-106r66,0r0,59v37,35,80,53,129,53v77,1,125,-65,125,-147","w":612},"6":{"d":"445,-218v0,-109,-25,-173,-122,-173v-85,0,-128,58,-128,173v0,106,30,174,128,174v96,0,123,-65,122,-174xm68,-356v0,-232,59,-364,273,-364v73,0,137,16,192,48r0,116r-66,0r0,-65v-62,-58,-205,-71,-243,19v-19,44,-33,116,-34,217v31,-39,76,-59,133,-59v163,0,245,75,245,226v1,149,-93,230,-245,227v-201,-4,-255,-141,-255,-365","w":641},"7":{"d":"131,-9r260,-600r-262,0r0,53r-66,0r0,-155r429,0r0,53r-300,676","w":531},"8":{"d":"423,-561v0,-71,-36,-106,-109,-106v-115,0,-145,112,-78,175v17,16,44,34,82,55v70,-43,105,-84,105,-124xm541,-204v0,136,-98,213,-242,213v-156,0,-234,-64,-234,-193v0,-64,40,-122,119,-175v-63,-46,-95,-111,-95,-194v0,-108,92,-167,212,-167v120,0,198,49,198,160v0,56,-36,109,-108,160v86,45,150,91,150,196xm141,-180v1,81,53,127,138,127v99,0,149,-37,149,-112v0,-37,-18,-68,-54,-93v-8,-5,-48,-25,-119,-60v-76,47,-114,93,-114,138","w":600},"9":{"d":"189,-493v0,109,26,173,123,173v84,0,128,-58,128,-173v0,-106,-30,-174,-128,-174v-96,0,-123,65,-123,174xm567,-356v0,233,-58,365,-273,365v-73,0,-138,-16,-193,-48r0,-117r67,0r0,66v62,57,203,71,242,-19v19,-44,33,-116,35,-217v-33,39,-77,59,-133,59v-163,0,-245,-75,-245,-226v-1,-149,93,-230,245,-227v200,4,255,140,255,364","w":641},":":{"d":"100,-58v0,-36,30,-66,66,-66v36,0,67,30,67,66v0,36,-31,67,-67,67v-36,0,-66,-31,-66,-67xm100,-476v0,-35,30,-66,66,-66v36,0,67,31,67,66v0,36,-31,67,-67,67v-36,0,-66,-31,-66,-67","w":329},";":{"d":"96,-476v0,-35,31,-66,67,-66v36,0,67,31,67,66v0,36,-31,67,-67,67v-36,0,-67,-31,-67,-67xm162,-124v50,0,79,39,78,91v0,70,-35,123,-104,158r-24,-36v49,-30,73,-63,73,-98v-31,43,-89,3,-89,-49v0,-36,30,-67,66,-66","w":329},"<":{"d":"172,-109r-42,-35r110,-124r-110,-125r42,-35r128,160","w":466},"=":{"d":"416,-236r-329,0r0,-53r329,0r0,53xm416,-404r-329,0r0,-54r329,0r0,54","w":510},"?":{"d":"145,-58v0,-36,31,-66,67,-66v35,0,66,30,66,66v0,36,-31,67,-66,67v-36,0,-67,-31,-67,-67xm232,-720v-69,0,-120,17,-152,52r0,90r67,0r0,-66v15,-12,44,-18,85,-18r0,-58xm334,-498v0,-112,-6,-159,-102,-164r0,-58v163,3,210,56,213,222v2,124,-81,213,-200,214r0,53r-67,0r0,-107v117,11,156,-20,156,-160","w":519},"A":{"d":"203,-213r-45,160r66,0r0,53r-195,0r0,-53r67,0r174,-605r-66,0r0,-53r180,0r189,658r67,0r0,53r-256,0r0,-53r66,0r-46,-160r-201,0xm389,-267r-86,-303r-85,303r171,0"},"B":{"d":"564,-191v0,128,-108,191,-242,191r-255,0r0,-53r66,0r0,-605r-66,0r0,-53r269,0v136,0,202,51,202,182v0,88,-36,143,-109,165v87,13,135,76,135,173xm251,-391v112,9,165,-14,165,-138v0,-117,-57,-138,-165,-129r0,267xm442,-191v0,-77,-54,-149,-129,-147r-62,0r0,285r71,0v73,1,120,-61,120,-138","w":615},"C":{"d":"60,-356v0,-229,67,-364,278,-364v83,0,152,20,206,59r0,105r-67,0r0,-58v-74,-69,-209,-76,-259,20v-44,83,-43,395,0,478v50,96,185,88,259,19r0,-59r67,0r0,106v-54,39,-123,59,-206,59v-211,0,-278,-136,-278,-365","w":616},"D":{"d":"618,-356v0,230,-64,356,-278,356r-273,0r0,-53r66,0r0,-605r-66,0r0,-53r273,0v212,4,278,127,278,355xm251,-53v98,3,171,0,209,-69v42,-77,43,-391,0,-468v-38,-69,-110,-71,-209,-68r0,605"},"E":{"d":"251,-53r167,0r0,-80r66,0r0,133r-417,0r0,-53r66,0r0,-605r-66,0r0,-53r413,0r0,133r-67,0r0,-80r-162,0r0,267r125,0r0,-53r66,0r0,160r-66,0r0,-54r-125,0r0,285","w":568},"F":{"d":"376,-391r0,-53r66,0r0,160r-66,0r0,-54r-125,0r0,285r89,0r0,53r-273,0r0,-53r66,0r0,-605r-66,0r0,-53r424,0r0,133r-67,0r0,-80r-173,0r0,267r125,0","w":532},"G":{"d":"60,-356v0,-229,67,-364,278,-364v83,0,152,20,206,59r0,105r-67,0r0,-58v-74,-69,-209,-76,-259,20v-44,83,-41,395,0,478v41,83,170,93,230,32r0,-205r-67,0r0,-53r185,0r0,292v-69,39,-145,59,-228,59v-211,0,-278,-136,-278,-365","w":645},"H":{"d":"251,-338r0,285r67,0r0,53r-251,0r0,-53r66,0r0,-605r-66,0r0,-53r251,0r0,53r-67,0r0,267r278,0r0,-267r-67,0r0,-53r251,0r0,53r-66,0r0,605r66,0r0,53r-251,0r0,-53r67,0r0,-285r-278,0","w":780},"I":{"d":"258,-53r66,0r0,53r-251,0r0,-53r67,0r0,-605r-67,0r0,-53r251,0r0,53r-66,0r0,605","w":398},"J":{"d":"258,-53v2,131,-84,243,-211,240r0,-54v62,0,93,-62,93,-186r0,-605r-67,0r0,-53r251,0r0,53r-66,0r0,605","w":398},"K":{"d":"597,-53r67,0r0,53r-172,0r-194,-336r-47,54r0,229r67,0r0,53r-251,0r0,-53r66,0r0,-605r-66,0r0,-53r251,0r0,53r-67,0r0,294r251,-294r-66,0r0,-53r204,0r0,53r-68,0r-193,226","w":695},"L":{"d":"351,-658r-100,0r0,605r167,0r0,-80r66,0r0,133r-417,0r0,-53r66,0r0,-605r-66,0r0,-53r284,0r0,53","w":520},"M":{"d":"612,-711r218,0r0,53r-66,0r0,605r66,0r0,53r-250,0r0,-53r66,0r0,-570r-181,623r-98,0r-180,-627r0,575r66,0r0,53r-186,0r0,-53r66,0r0,-606r-66,0r0,-53r216,0r166,569","w":897},"N":{"d":"473,0r-286,-588r0,535r66,0r0,53r-186,0r0,-53r66,0r0,-605r-66,0r0,-53r190,0r278,570r0,-517r-67,0r0,-53r187,0r0,53r-67,0r0,658r-115,0","w":705},"O":{"d":"60,-356v0,-229,67,-364,278,-364v211,0,278,136,278,364v0,229,-67,365,-278,365v-211,0,-278,-136,-278,-365xm457,-116v41,-83,42,-396,0,-479v-47,-93,-192,-92,-239,1v-42,84,-42,395,0,478v47,93,193,93,239,0"},"P":{"d":"251,-391v112,3,169,-29,169,-138v0,-116,-59,-139,-169,-129r0,267xm542,-529v0,165,-109,191,-291,191r0,285r107,0r0,53r-291,0r0,-53r66,0r0,-605r-66,0r0,-53r251,0v151,2,224,39,224,182","w":592},"Q":{"d":"457,-116v41,-83,42,-396,0,-479v-47,-93,-192,-92,-239,1v-42,84,-42,395,0,478v47,93,193,93,239,0xm338,-720v211,0,278,136,278,364v0,216,-71,336,-214,360v8,86,38,129,91,129r0,54v-113,1,-191,-82,-209,-182v-149,-20,-224,-140,-224,-361v0,-229,67,-364,278,-364"},"R":{"d":"542,-529v2,84,-62,159,-133,173v90,30,126,201,165,303r66,0r0,53r-181,0v-32,-94,-45,-205,-94,-282v-29,-46,-58,-59,-114,-56r0,285r107,0r0,53r-291,0r0,-53r66,0r0,-605r-66,0r0,-53r251,0v151,2,221,39,224,182xm251,-391v112,3,169,-29,169,-138v0,-116,-59,-139,-169,-129r0,267"},"S":{"d":"60,-524v0,-129,77,-197,210,-196v91,0,152,18,182,53r0,89r-67,0r0,-44v-23,-30,-62,-45,-116,-45v-63,0,-103,44,-102,107v0,45,26,84,81,111r151,75v54,38,81,92,81,161v0,134,-87,222,-218,222v-82,0,-150,-20,-204,-59r0,-106r67,0r0,59v40,29,84,44,131,44v65,1,113,-51,112,-116v0,-43,-27,-77,-80,-103v-93,-46,-143,-71,-148,-75v-53,-41,-80,-100,-80,-177","w":537},"T":{"d":"478,0r-318,0r0,-53r100,0r0,-605r-162,2r0,78r-67,0r0,-133r576,0r0,133r-67,0r0,-80r-162,0r0,605r100,0r0,53","w":629},"U":{"d":"601,-222v0,154,-80,231,-241,231v-161,0,-241,-77,-241,-231r0,-436r-67,0r0,-53r251,0r0,53r-67,0r0,436v0,119,52,178,156,178v104,0,156,-59,156,-178r0,-436r-67,0r0,-53r187,0r0,53r-67,0r0,436","w":702},"V":{"d":"360,-142r144,-516r-66,0r0,-53r195,0r0,53r-66,0r-191,658r-98,0r-189,-658r-67,0r0,-53r257,0r0,53r-67,0","w":656},"W":{"d":"737,-142r-148,-516xm737,-142r144,-516r-66,0r0,-53r195,0r0,53r-66,0r-191,658r-98,0r-138,-492r-141,492r-98,0r-189,-658r-67,0r0,-53r257,0r0,53r-67,0r148,516r144,-516r-66,0r0,-53r218,0r0,53r-67,0","w":1032},"X":{"d":"278,-360r-145,-298r-75,0r0,-53r260,0r0,53r-54,0r92,189r92,-189r-53,0r0,-53r222,0r0,53r-109,0r-122,250r174,355r62,0r0,53r-261,0r0,-53r67,0r-120,-247r-120,247r66,0r0,53r-192,0r0,-53r66,0","w":678},"Y":{"d":"208,0r0,-53r62,0r0,-282r-158,-323r-62,0r0,-53r261,0r0,53r-67,0r120,246r120,-246r-66,0r0,-53r192,0r0,53r-66,0r-156,318r0,287r68,0r0,53r-248,0","w":646},"Z":{"d":"477,-658r-283,605r226,0r0,-80r66,0r0,133r-423,0r0,-53r281,-605r-192,0r0,80r-67,0r0,-133r392,0r0,53","w":564},"[":{"d":"93,-771r178,0r0,53r-125,0r0,902r125,0r0,53r-178,0r0,-1008","w":334},"\\":{"d":"300,188r-259,-901r51,-15r259,901","w":391},"]":{"d":"233,237r-178,0r0,-53r125,0r0,-902r-125,0r0,-53r178,0r0,1008","w":334},"^":{"d":"355,-636r-35,41r-124,-109r-125,109r-35,-41r160,-128","w":400},"_":{"d":"434,293r-400,0r0,-71r400,0r0,71","w":478},"`":{"d":"57,-704r37,-63r203,128r-27,47","w":356},"a":{"d":"264,-276v-69,2,-84,40,-84,116v0,132,86,106,155,31r0,-142v-34,-3,-58,-5,-71,-5xm68,-160v0,-123,58,-169,187,-169v24,0,51,5,80,16r0,-100v0,-47,-27,-71,-80,-71v-41,0,-71,7,-89,22r0,53r-66,0r0,-80v37,-35,91,-53,160,-53v121,-2,177,45,177,158r0,331r67,0r0,53r-164,0r0,-80v-54,59,-102,89,-143,89v-86,0,-129,-56,-129,-169","w":558},"b":{"d":"516,-280v0,182,-49,289,-209,289v-53,0,-111,-15,-174,-45r0,-622r-66,0r0,-53r169,0r0,233v38,-43,84,-64,137,-64v108,1,143,132,143,262xm236,-67v113,64,173,-7,173,-200v0,-135,-24,-202,-71,-202v-35,0,-69,11,-102,33r0,369","w":581},"c":{"d":"64,-267v0,-171,50,-275,207,-275v69,0,117,17,145,51r0,82r-67,0r0,-58v-11,-11,-37,-17,-78,-17v-39,0,-65,21,-79,63v-11,31,-16,83,-16,154v1,235,75,251,231,176r15,51v-52,31,-110,47,-175,47v-122,0,-183,-91,-183,-274","w":484},"d":{"d":"351,-467v-114,-62,-174,7,-174,200v0,135,24,203,71,203v35,0,69,-11,103,-34r0,-369xm71,-253v0,-210,88,-326,280,-276r0,-129r-67,0r0,-53r169,0r0,658r67,0r0,53r-160,0r0,-56v-41,43,-90,65,-147,65v-95,0,-142,-87,-142,-262","w":581},"e":{"d":"180,-240v-1,94,29,191,106,191v50,0,100,-12,151,-35r16,48v-66,30,-129,45,-189,45v-131,0,-196,-92,-196,-276v0,-171,44,-275,198,-275v183,0,188,86,191,302r-277,0xm266,-489v-78,0,-87,87,-86,196r173,0v0,-73,-3,-120,-10,-142v-11,-36,-37,-54,-77,-54","w":522},"f":{"d":"133,-533v-9,-160,94,-204,245,-180r0,109r-67,0r0,-60v-75,-11,-78,32,-75,131r97,0r0,57r-97,0r0,423r97,0r0,53r-266,0r0,-53r66,0r0,-423r-66,0r0,-57r66,0","w":440},"g":{"d":"266,-224v65,0,80,-54,80,-134v0,-79,-15,-133,-80,-133v-56,0,-84,44,-84,133v0,89,28,134,84,134xm451,-358v0,115,-64,186,-179,185v-49,-1,-91,20,-94,59v-2,28,13,27,43,27r139,0v83,0,125,37,125,112v0,108,-99,162,-224,162v-79,0,-144,-19,-195,-58r0,-93r66,0r0,51v65,61,258,64,258,-38v0,-33,-17,-49,-50,-49v-94,0,-251,21,-251,-67v0,-49,29,-90,86,-123v-65,-29,-98,-85,-98,-168v0,-115,72,-184,189,-184v67,0,117,20,148,61v26,-53,60,-79,110,-63r0,77v-36,-8,-68,-4,-91,18v12,26,18,56,18,91","w":565},"h":{"d":"409,-391v-3,-61,-8,-81,-69,-80v-39,0,-73,15,-104,44r0,374r53,0r0,53r-209,0r0,-53r53,0r0,-605r-66,0r0,-53r169,0r0,249v45,-53,94,-80,148,-80v107,2,127,49,127,164r0,325r67,0r0,53r-169,0r0,-391","w":644},"i":{"d":"76,-533r168,0r0,480r67,0r0,53r-235,0r0,-53r66,0r0,-427r-66,0r0,-53xm126,-689v0,-36,31,-67,67,-67v36,0,67,31,67,67v0,36,-31,66,-67,66v-36,0,-67,-30,-67,-66","w":383},"j":{"d":"126,-689v0,-36,31,-67,67,-67v36,0,67,31,67,67v0,36,-31,66,-67,66v-36,0,-67,-30,-67,-66xm44,133v81,-4,98,-78,98,-186r0,-427r-66,0r0,-53r168,0r0,480v-1,163,-49,237,-200,240r0,-54","w":366},"k":{"d":"470,-480r-133,132r170,295r53,0r0,53r-140,0r-158,-272r-26,26r0,193r53,0r0,53r-222,0r0,-53r66,0r0,-605r-66,0r0,-53r169,0r0,390r158,-159r-47,0r0,-53r173,0r0,53r-50,0","w":607},"l":{"d":"76,-711r168,0r0,658r67,0r0,53r-235,0r0,-53r66,0r0,-605r-66,0r0,-53","w":388},"m":{"d":"509,-427r2,374r67,0r0,53r-215,0r0,-53r46,0r0,-338v-3,-61,-8,-81,-69,-80v-39,0,-73,15,-104,44r0,374r44,0r0,53r-200,0r0,-53r53,0r0,-427r-66,0r0,-53r160,0r0,71v51,-53,103,-80,157,-80v73,1,103,20,119,78v47,-52,99,-78,156,-78v107,0,127,49,127,164r0,325r66,0r0,53r-168,0r0,-391v-3,-61,-8,-81,-69,-80v-41,0,-77,15,-106,44","w":914},"n":{"d":"409,-391v-3,-61,-8,-81,-69,-80v-39,0,-73,15,-104,44r0,374r53,0r0,53r-209,0r0,-53r53,0r0,-427r-66,0r0,-53r160,0r0,71v51,-53,103,-80,157,-80v107,2,127,49,127,164r0,325r67,0r0,53r-169,0r0,-391","w":644},"o":{"d":"280,-542v145,0,218,93,218,278v0,185,-73,277,-218,277v-145,0,-218,-92,-218,-277v0,-185,73,-278,218,-278xm280,-40v98,0,107,-98,107,-224v0,-128,-9,-225,-107,-225v-98,0,-107,98,-107,225v0,127,9,224,107,224","w":560},"p":{"d":"236,-67v113,64,173,-7,173,-200v0,-135,-24,-202,-71,-202v-35,0,-69,11,-102,33r0,369xm516,-280v0,210,-88,326,-280,276r0,128r66,0r0,54r-235,0r0,-54r66,0r0,-604r-66,0r0,-53r160,0r0,55v41,-43,90,-64,146,-64v95,0,143,87,143,262","w":576},"q":{"d":"347,-467v-114,-62,-174,7,-174,200v0,135,24,203,71,203v35,0,69,-11,103,-34r0,-369xm67,-253v0,-182,48,-285,209,-289v15,0,53,9,115,9r125,0r0,53r-67,0r0,604r67,0r0,54r-236,0r0,-54r67,0r0,-180v-35,43,-81,65,-138,65v-95,0,-142,-87,-142,-262","w":578},"r":{"d":"342,-467v-45,-6,-76,7,-106,40r0,374r97,0r0,53r-266,0r0,-53r66,0r0,-427r-66,0r0,-53r164,0r0,69v46,-66,91,-86,173,-76r0,131r-62,0r0,-58","w":446},"s":{"d":"67,-393v0,-90,70,-149,164,-149v57,0,108,13,151,38r0,95r-66,0r0,-58v-27,-11,-55,-17,-85,-17v-44,-1,-70,31,-75,73v-7,60,182,110,186,125v43,32,65,78,65,137v0,93,-79,158,-171,158v-69,0,-126,-14,-169,-42r0,-100r66,0r0,57v27,18,59,27,98,27v45,0,79,-31,80,-73v0,-34,-21,-61,-63,-80v-75,-34,-115,-52,-118,-54v-42,-30,-63,-76,-63,-137","w":466},"t":{"d":"224,-133v-3,71,30,93,98,84r0,53v-119,19,-200,-16,-200,-137r0,-347r-66,0r0,-53r66,0r0,-111r102,-45r0,156r103,0r0,53r-103,0r0,347","w":385},"u":{"d":"231,-142v3,61,9,80,69,80v39,0,73,-15,104,-45r0,-373r-53,0r0,-53r156,0r0,480r66,0r0,53r-160,0r0,-71v-51,53,-103,80,-157,80v-108,0,-127,-50,-127,-165r0,-324r-67,0r0,-53r169,0r0,391","w":638},"v":{"d":"22,-533r204,0r0,53r-46,0r103,390r104,-390r-47,0r0,-53r158,0r0,53r-54,0r-138,480r-95,0r-139,-480r-50,0r0,-53","w":520},"w":{"d":"371,-480r-45,0r0,-53r194,0r0,53r-46,0r102,390r91,-390r-47,0r0,-53r158,0r0,53r-53,0r-121,480r-98,0r-108,-372r-107,372r-99,0r-117,-480r-53,0r0,-53r203,0r0,53r-46,0r87,390","w":800},"x":{"d":"524,-533r0,53r-72,0r-104,179r144,248r55,0r0,53r-216,0r0,-53r42,0r-93,-162r-92,162r39,0r0,53r-156,0r0,-53r56,0r118,-204r-128,-223r-50,0r0,-53r209,0r0,53r-40,0r76,137r79,-137r-35,0r0,-53r168,0","w":596},"y":{"d":"323,7v-21,73,-44,121,-66,147v-26,31,-82,38,-132,30r0,-51v73,11,116,-59,95,-133r-138,-480r-49,0r0,-53r195,0r0,53r-40,0r108,378r109,-378r-55,0r0,-53r156,0r0,53r-45,0","w":539},"z":{"d":"44,0r0,-53r247,-427r-162,0r0,71r-62,0r0,-124r342,0r0,53r-246,427r188,0r0,-80r67,0r0,133r-374,0","w":481},"{":{"d":"149,52v-70,-156,-70,-481,0,-637v40,-89,91,-135,157,-135r0,53v-62,0,-93,133,-93,400v0,267,31,400,93,400r0,54v-66,0,-117,-46,-157,-135","w":378},"|":{"d":"145,191r0,-915r54,0r0,915r-54,0","w":329},"}":{"d":"72,187r0,-54v63,0,94,-133,94,-400v0,-267,-31,-400,-94,-400r0,-53v66,0,118,46,158,135v71,157,71,481,0,637v-40,89,-92,135,-158,135","w":378},"~":{"d":"160,-720v39,0,112,62,151,62v28,0,44,-14,49,-42r36,9v-14,54,-50,81,-107,81v-39,0,-112,-62,-151,-62v-28,0,-44,14,-49,42r-36,-9v14,-54,50,-81,107,-81","w":444},"\u00e7":{"d":"64,-267v0,-171,50,-275,207,-275v69,0,117,17,145,51r0,82r-67,0r0,-58v-11,-11,-37,-17,-78,-17v-39,0,-65,21,-79,63v-11,31,-16,83,-16,154v1,235,75,251,231,176r15,51v-38,22,-91,41,-141,45r-11,44v71,0,107,23,107,68v0,95,-118,90,-195,59r1,-44v38,17,69,26,93,26v27,0,40,-12,40,-35v-10,-47,-32,-35,-108,-38r22,-79v-111,-7,-166,-98,-166,-273","w":484},"\u00f6":{"d":"280,-542v145,0,218,93,218,278v0,185,-73,277,-218,277v-145,0,-218,-92,-218,-277v0,-185,73,-278,218,-278xm280,-40v98,0,107,-98,107,-224v0,-128,-9,-225,-107,-225v-98,0,-107,98,-107,225v0,127,9,224,107,224xm84,-689v0,-36,31,-67,67,-67v36,0,67,31,67,67v0,36,-31,66,-67,66v-36,0,-67,-30,-67,-66xm342,-689v0,-36,31,-67,67,-67v36,0,67,31,67,67v0,36,-31,66,-67,66v-36,0,-67,-30,-67,-66","w":560},"\u00fc":{"d":"231,-142v3,61,9,80,69,80v39,0,73,-15,104,-45r0,-373r-53,0r0,-53r156,0r0,480r66,0r0,53r-160,0r0,-71v-51,53,-103,80,-157,80v-108,0,-127,-50,-127,-165r0,-324r-67,0r0,-53r169,0r0,391xm110,-689v0,-36,31,-67,67,-67v36,0,67,31,67,67v0,36,-31,66,-67,66v-36,0,-67,-30,-67,-66xm384,-689v0,-36,30,-67,66,-67v36,0,67,31,67,67v0,36,-31,66,-67,66v-36,0,-66,-30,-66,-66","w":638},"\u00a0":{"w":222}}});
