// #### Generated By: http://www.cufonfonts.com ####
/*!
 * The following copyright notice may not be removed under any circumstances.
 * 
 * Copyright:
 * Copyright (c) 2010 by Peter Wiegel.   Open Font under Terms of following Free
 * Software Licenses:
 * GPL (General Public License) with font-exception and OFL (Open Font License
 * 
 * Trademark:
 * Proletarskr  is a trademark of Peter Wiegel.
 * 
 * Description:
 * Copyright (c) 2010 by Peter Wiegel.   Open Font under Terms of following Free
 * Software Licenses:
 * GPL (General Public License) with font-exception and OFL (Open Font License
 * 
 * Manufacturer:
 * Peter Wiegel
 * 
 * Designer:
 * Peter Wiegel, original typeface by Carl Albert Fahrenwaldt 1901
 * 
 * Vendor URL:
 * www.peter-wiegel.de
 * 
 * License information:
 * http://www.fsf.org/licenses/gpl.html AND http://scripts.sil.org/OFL
 */
Cufon.registerFont({"w":1255,"face":{"font-family":"Proletarsk","font-weight":400,"font-stretch":"normal","units-per-em":"2048","panose-1":"2 11 6 3 5 3 2 2 2 4","ascent":"1638","descent":"-410","cap-height":"5","bbox":"-389 -1853 2186 544.223","underline-thickness":"0","underline-position":"0","unicode-range":"U+0020-U+20AC"},"glyphs":{" ":{"w":600},"!":{"d":"130,-351r0,-1113r183,0r0,1113r-183,0xm130,4r0,-173r175,0r0,173r-175,0","w":443},"\"":{"d":"502,-1118r0,-348r175,0r0,348r-175,0xm150,-1118r0,-348r175,0r0,348r-175,0","w":830},"#":{"d":"71,-290r0,-154r169,0r0,-155r-169,0r0,-155r169,0r0,-170r155,0r0,170r155,0r0,-170r154,0r0,170r170,0r0,155r-170,0r0,155r170,0r0,154r-170,0r0,169r-154,0r0,-169r-155,0r0,169r-155,0r0,-169r-169,0xm395,-444r155,0r0,-155r-155,0r0,155","w":946},"$":{"d":"723,-1401v120,79,211,216,187,410r-178,0v30,-138,-39,-237,-137,-280r0,464v145,34,253,132,296,265v86,266,-72,486,-296,538r0,9r-183,0r0,-9v-184,-49,-309,-181,-319,-402v-1,-22,1,-42,4,-61r179,0v-30,138,38,238,136,280r0,-464v-184,-49,-319,-181,-319,-402v0,-165,86,-278,191,-348v39,-25,82,-43,128,-53r0,-10r183,0r0,10v46,10,89,28,128,53xm595,-186v95,-42,176,-158,135,-288v-22,-70,-70,-122,-135,-150r0,438xm412,-1271v-93,40,-175,157,-134,287v21,70,68,123,134,150r0,-437","w":1008},"%":{"d":"1264,-1464r-816,1469r-199,0r815,-1469r200,0xm1226,-315v0,-88,-60,-149,-148,-149v-89,0,-149,59,-149,149v0,90,59,149,149,149v89,0,148,-60,148,-149xm780,-440v56,-143,231,-247,423,-174v141,54,245,240,173,424v-55,140,-240,244,-424,172v-141,-55,-244,-238,-172,-422xm558,-1140v0,-88,-60,-149,-148,-149v-89,0,-149,59,-149,149v0,90,59,149,149,149v89,0,148,-60,148,-149xm112,-1265v56,-143,231,-246,423,-173v141,54,245,240,173,424v-55,140,-240,244,-424,172v-141,-55,-244,-239,-172,-423","w":1493},"&":{"d":"516,-16v-244,94,-490,-133,-393,-392v14,-35,36,-68,66,-98r152,-152r-89,-88v-85,-81,-111,-205,-64,-326v50,-131,222,-233,392,-162v104,43,183,136,183,277v0,83,-29,153,-87,211r-88,88r177,177r272,-273r124,124r-273,273r186,188r94,0r0,174r-166,0r-237,-239r-152,152v-29,29,-61,52,-97,66xm313,-382v-76,73,-24,213,87,213v34,0,64,-11,89,-36r152,-153r-177,-176xm464,-1082v-110,-6,-162,138,-88,212r88,88r88,-88v24,-24,36,-53,36,-88v0,-75,-49,-120,-124,-124","w":1210},"'":{"d":"150,-1118r0,-348r175,0r0,348r-175,0","w":484},"(":{"d":"219,-729v0,303,258,568,560,560r0,174v-397,11,-735,-338,-735,-734v0,-395,339,-746,735,-735r0,175v-302,-9,-560,259,-560,560","w":895},")":{"d":"655,-582v103,-380,-194,-711,-540,-708r0,-174v395,-11,735,339,735,734v0,393,-340,747,-735,735r0,-175v240,-7,388,-125,483,-279v25,-41,44,-85,57,-133","w":894},"*":{"d":"40,-1194r78,-134r232,134r0,-268r155,0r0,269r232,-134r77,134r-231,133r230,132r-77,135r-231,-133r0,267r-155,0r0,-266r-232,133r-77,-135r231,-133","w":854},"+":{"d":"7,-599r324,0r0,-325r155,0r0,325r324,0r0,155r-324,0r0,324r-155,0r0,-324r-324,0r0,-155","w":817},",":{"d":"150,179r0,-348r175,0r0,348r-175,0","w":483},"-":{"d":"150,-444r0,-155r803,0r0,155r-803,0","w":1105},".":{"d":"150,4r0,-173r175,0r0,173r-175,0","w":483},"\/":{"d":"1016,-1464r-816,1469r-199,0r815,-1469r200,0","w":1017},"0":{"d":"244,-1348v85,-88,280,-157,441,-85v139,61,256,181,256,364r0,663v-6,192,-112,315,-252,378v-98,43,-222,44,-319,0v-140,-63,-251,-185,-251,-378r0,-663v5,-119,60,-212,125,-279xm530,-1289v-137,0,-236,90,-236,220r0,663v3,111,62,187,144,218v170,63,328,-43,328,-218r0,-663v-18,-127,-99,-220,-236,-220","w":1060},"1":{"d":"296,5r0,-1247r-96,173r-200,0r219,-395r260,0r0,1469r-183,0","w":632},"2":{"d":"91,5r614,-928v68,-89,34,-232,-29,-295v-55,-55,-165,-90,-258,-52v-103,41,-185,172,-129,307v36,87,115,153,242,145r-111,167v-190,-47,-324,-180,-324,-405v0,-191,114,-314,254,-376v98,-43,222,-42,320,2v163,73,294,263,232,498v-10,37,-29,71,-52,106r-434,657r503,0r0,174r-828,0","w":1006},"3":{"d":"577,-1270v-162,-61,-317,46,-327,201r-175,0v11,-184,116,-304,255,-364v97,-42,218,-43,314,1v139,63,253,186,253,379v0,134,-52,242,-157,324v144,109,201,297,124,482v-59,142,-185,252,-378,252v-193,0,-315,-112,-378,-251v-22,-50,-33,-103,-33,-160r175,0v3,111,62,186,144,218v198,78,390,-102,309,-309v-32,-82,-107,-141,-217,-145r0,-175v111,-3,185,-63,218,-144v56,-137,-24,-269,-127,-309","w":1000},"4":{"d":"681,5r0,-400r-680,0r595,-1071r200,0r-498,897r383,0r0,-500r175,0r0,500r161,0r0,174r-161,0r0,400r-175,0","w":1071},"5":{"d":"936,-1464r0,175r-647,0r0,288v110,-80,262,-101,395,-42v140,62,252,185,252,378v0,151,14,309,-34,421v-73,170,-284,306,-518,224v-133,-46,-228,-152,-262,-298r183,0v45,127,176,183,311,130v82,-33,145,-107,145,-218v0,-120,21,-259,-18,-350v-35,-81,-108,-145,-218,-145v-107,0,-180,50,-219,149r-192,0r0,-712r822,0","w":1036},"6":{"d":"239,-1343v86,-92,284,-164,449,-89v139,64,246,186,252,379r-175,0v-4,-110,-63,-186,-145,-217v-169,-64,-327,42,-327,217r0,311v109,-80,262,-101,395,-42v140,62,252,185,252,378v0,192,-112,315,-252,378v-98,43,-221,44,-318,0v-140,-63,-252,-185,-252,-378r0,-647v1,-124,57,-221,121,-290xm746,-497v-42,-103,-169,-179,-309,-127v-104,39,-177,176,-125,311v40,103,174,177,308,125v103,-40,181,-175,126,-309","w":1028},"7":{"d":"305,5r0,-781r286,-513r-560,0r0,-175r857,0r-408,733r0,736r-175,0","w":905},"8":{"d":"224,-1343v84,-93,283,-164,448,-89v139,64,253,186,253,379v0,135,-52,243,-157,324v144,108,201,297,124,482v-59,142,-185,252,-378,252v-193,0,-319,-110,-378,-251v-77,-184,-19,-376,125,-483v-144,-105,-200,-298,-125,-483v20,-50,53,-92,88,-131xm732,-314v77,-207,-109,-385,-309,-310v-103,39,-179,175,-127,310v40,103,175,181,309,126v57,-24,105,-68,127,-126xm732,-961v77,-207,-109,-384,-309,-309v-103,39,-179,174,-127,309v40,103,176,180,310,125v57,-24,104,-67,126,-125","w":1028},"9":{"d":"789,-116v-86,92,-284,163,-449,88v-140,-64,-246,-185,-252,-378r175,0v3,112,61,187,144,218v170,63,328,-43,328,-218r0,-310v-111,79,-262,100,-395,42v-140,-62,-252,-186,-252,-379v0,-192,112,-316,252,-379v98,-43,220,-44,318,0v140,63,252,186,252,379r0,647v-1,124,-57,221,-121,290xm282,-1145v-78,208,107,385,309,309v103,-38,178,-174,125,-308v-41,-102,-175,-181,-309,-126v-57,24,-103,67,-125,125","w":1029},":":{"d":"150,-465r0,-173r175,0r0,173r-175,0xm150,4r0,-173r175,0r0,173r-175,0","w":356},";":{"d":"150,179r0,-348r175,0r0,348r-175,0xm150,-465r0,-173r175,0r0,173r-175,0","w":431},"<":{"d":"536,-1464r217,0r-533,735r533,734r-217,0r-532,-734","w":836},"=":{"d":"150,-599r0,-155r803,0r0,155r-803,0xm150,-290r0,-154r803,0r0,154r-803,0","w":1006},">":{"d":"300,5r-217,0r533,-735r-533,-734r217,0r532,734","w":836},"@":{"d":"264,-729v0,306,261,562,557,562r475,0v-133,115,-291,172,-472,172v-397,0,-735,-338,-735,-734v0,-395,339,-735,735,-735v303,0,582,213,680,453v87,212,67,482,-50,662r-530,0r0,-9v-214,45,-384,-69,-450,-224v-66,-155,-1,-340,84,-420v81,-76,216,-139,366,-101r0,-8r184,0r0,598r233,0v160,-384,-146,-776,-517,-776v-302,0,-560,259,-560,560xm924,-916v-173,-90,-363,75,-290,268v37,97,171,168,290,106r0,-374","w":1629},"A":{"d":"482,-1464r250,0r437,1469r-183,0r-52,-174r-655,0r-52,174r-182,0xm331,-344r551,0r-275,-927","w":1215},"B":{"d":"941,-729v94,71,158,153,158,323v0,91,-41,181,-121,273v-80,92,-177,138,-290,138r-538,0r0,-1469r538,0v113,0,209,46,290,139v81,93,121,183,121,272v0,169,-63,254,-158,324xm325,-642r0,473r363,0v110,-3,187,-63,218,-145v63,-169,-45,-328,-218,-328r-363,0xm688,-1289r-363,0r0,472r363,0v111,-3,187,-62,218,-144v63,-169,-45,-328,-218,-328","w":1206},"C":{"d":"823,-169v248,-8,401,-132,494,-298r192,0v-82,208,-244,366,-462,437v-502,164,-959,-232,-959,-699v0,-465,456,-863,958,-699v219,71,381,228,463,437r-192,0v-95,-164,-246,-290,-494,-298v-302,-9,-560,259,-560,560v0,303,258,568,560,560","w":1570},"D":{"d":"1275,-729v0,396,-339,745,-735,734r-389,0r0,-1469r389,0v304,-12,584,212,682,453v36,85,53,179,53,282xm754,-1248v-118,-51,-267,-39,-428,-41r0,1120v164,-2,311,11,430,-45v189,-89,335,-252,344,-515v8,-231,-164,-440,-346,-519","w":1349},"E":{"d":"1100,5r-949,0r0,-1469r949,0r0,175r-774,0r0,472r613,0r0,175r-613,0r0,473r774,0r0,174","w":1156},"F":{"d":"327,5r-175,0r0,-1469r949,0r0,175r-774,0r0,472r608,0r0,175r-608,0r0,647","w":1101},"G":{"d":"1559,-729v11,396,-339,734,-734,734v-397,0,-735,-338,-735,-734v0,-465,456,-863,958,-699v219,71,381,228,463,437r-192,0v-95,-164,-246,-290,-494,-298v-302,-9,-560,259,-560,560v0,367,373,673,757,523v183,-72,315,-223,356,-436r-509,0r0,-175r685,0","w":1635},"H":{"d":"328,5r-175,0r0,-1469r175,0r0,647r599,0r0,-647r175,0r0,1469r-175,0r0,-647r-599,0r0,647","w":1257},"I":{"d":"153,5r0,-1469r175,0r0,1469r-175,0","w":490},"J":{"d":"822,-406v-6,192,-112,315,-252,378v-98,43,-221,44,-318,0v-140,-63,-246,-185,-252,-378r175,0v3,111,62,187,144,218v170,63,328,-43,328,-218r0,-1058r175,0r0,1058","w":961},"K":{"d":"329,5r-175,0r0,-1469r175,0r0,650r650,-650r247,0r-735,736r735,733r-247,0r-650,-648r0,648","w":1313},"L":{"d":"1104,5r-949,0r0,-1469r175,0r0,1295r774,0r0,174","w":1104},"M":{"d":"330,5r-175,0r0,-1469r175,0r455,789r455,-789r175,0r0,1469r-175,0r0,-1119r-455,789r-455,-789r0,1119","w":1571},"N":{"d":"331,5r-175,0r0,-1469r175,0r799,1161r0,-1161r175,0r0,1469r-175,0r-799,-1160r0,1160","w":1462},"O":{"d":"1562,-729v0,396,-339,734,-734,734v-397,0,-735,-338,-735,-734v0,-395,339,-735,735,-735v303,0,582,213,680,453v36,85,54,179,54,282xm268,-729v0,303,258,560,560,560v300,0,559,-260,559,-560v0,-300,-261,-560,-559,-560v-302,0,-560,259,-560,560","w":1655},"P":{"d":"695,-642r-363,0r0,647r-175,0r0,-1469r538,0v192,5,316,113,379,252v44,98,43,220,0,318v-63,140,-186,252,-379,252xm332,-1289r0,472r363,0v111,-3,186,-62,217,-144v63,-169,-44,-328,-217,-328r-363,0","w":1110},"Q":{"d":"832,-1464v398,0,734,340,734,739v0,168,-52,318,-156,450r280,279r-246,0r-158,-155v-194,160,-479,202,-734,103v-243,-94,-454,-376,-454,-681v0,-393,337,-735,734,-735xm832,-1289v-372,0,-683,393,-516,775v84,192,252,346,516,346v121,0,231,-36,330,-108r-391,-391r123,-124r391,391v71,-97,107,-206,107,-325v0,-305,-257,-564,-560,-564","w":1765},"R":{"d":"1107,5r-214,0r-452,-647r-108,0r0,647r-175,0r0,-1469r538,0v192,5,315,113,378,252v44,98,44,220,0,318v-68,150,-198,260,-420,252xm333,-1289r0,472r363,0v111,-3,187,-62,218,-144v63,-169,-45,-328,-218,-328r-363,0","w":1210},"S":{"d":"348,-28v-156,-71,-270,-217,-247,-439r179,0v-31,137,38,240,136,279v198,78,390,-102,309,-309v-32,-82,-107,-141,-217,-145v-193,-5,-315,-113,-378,-252v-44,-97,-43,-220,0,-318v63,-140,185,-252,378,-252v192,0,316,113,378,252v30,67,40,140,28,221r-178,0v31,-137,-39,-240,-137,-279v-197,-79,-388,102,-309,309v31,83,107,141,218,144v192,6,315,114,378,253v43,98,43,219,0,317v-63,140,-185,252,-378,252v-57,0,-110,-11,-160,-33","w":1016},"T":{"d":"991,-1464r0,175r-391,0r0,1294r-183,0r0,-1294r-390,0r0,-175r964,0","w":1018},"U":{"d":"964,-406v-6,192,-112,315,-252,378v-98,43,-221,44,-318,0v-140,-63,-252,-185,-252,-378r0,-1058r165,0r10,1058v3,111,62,187,144,218v170,63,328,-43,328,-218r0,-1058r175,0r0,1058","w":1107},"V":{"d":"484,5r-437,-1469r182,0r380,1277r379,-1277r183,0r-437,1469r-250,0","w":1219},"W":{"d":"414,5r-316,-1469r179,0r273,1270r273,-1270r276,0r273,1270r273,-1270r178,0r-315,1469r-272,0r-275,-1279r-275,1279r-272,0","w":1922},"X":{"d":"332,-1464r425,586r424,-586r217,0r-533,735r533,734r-217,0r-424,-585r-425,585r-216,0r533,-734r-533,-735r216,0","w":1514},"Y":{"d":"242,-1464r425,586r424,-586r217,0r-554,763r0,706r-175,0r0,-706r-553,-763r216,0","w":1334},"Z":{"d":"1107,5r-1016,0r719,-1294r-719,0r0,-175r1016,0r-719,1295r719,0r0,174","w":1197},"[":{"d":"514,5r-353,0r0,-1469r353,0r0,175r-178,0r0,1120r178,0r0,174","w":606},"\\":{"d":"1,-1464r199,0r816,1469r-200,0","w":1017},"]":{"d":"90,-1464r353,0r0,1469r-353,0r0,-175r178,0r0,-1120r-178,0r0,-174","w":608},"^":{"d":"244,-580r-215,0r640,-884r640,884r-216,0r-424,-586","w":1338},"_":{"d":"161,400r0,-155r803,0r0,155r-803,0","w":1127},"`":{"d":"266,-1107r-247,-247r124,-123r246,246","w":409},"a":{"d":"96,-532v0,-289,250,-537,537,-537v139,0,260,47,363,140r0,-140r175,0r0,1074r-175,0r0,-140v-103,93,-224,140,-363,140v-289,0,-537,-248,-537,-537xm300,-391v66,158,261,280,473,193v126,-51,223,-163,223,-334v0,-169,-100,-279,-223,-334v-145,-66,-318,-1,-395,78v-83,85,-138,254,-78,397","w":1333},"b":{"d":"906,-38v-202,87,-426,40,-570,-97r0,140r-175,0r0,-1469r175,0r0,535v144,-138,368,-185,570,-97v184,80,330,242,330,494v0,252,-146,415,-330,494xm364,-391v66,158,262,280,474,193v126,-51,223,-163,223,-334v0,-169,-100,-279,-223,-334v-145,-66,-319,-1,-396,78v-83,85,-138,254,-78,397","w":1254},"c":{"d":"632,-169v158,0,256,-85,318,-188r191,0v-79,204,-239,353,-509,362v-289,10,-537,-248,-537,-537v0,-342,338,-634,705,-510v163,55,283,174,341,335r-191,0v-63,-102,-160,-187,-318,-187v-170,0,-278,99,-334,222v-66,145,-3,321,78,396v62,57,145,107,256,107","w":1207},"d":{"d":"18,-532v0,-289,250,-537,537,-537v139,0,260,47,363,140r0,-535r175,0r0,1469r-175,0r0,-140v-103,93,-224,140,-363,140v-289,0,-537,-248,-537,-537xm222,-391v66,158,261,280,473,193v126,-51,223,-163,223,-334v0,-169,-100,-279,-223,-334v-145,-66,-318,-1,-395,78v-83,85,-138,254,-78,397"},"e":{"d":"633,-169v158,0,256,-85,318,-188r191,0v-79,204,-239,353,-509,362v-289,10,-537,-248,-537,-537v0,-358,377,-655,744,-494v183,80,331,242,331,494v0,31,-3,60,-8,88r-882,0v46,157,159,275,352,275xm985,-619v-47,-185,-243,-330,-473,-254v-116,39,-198,130,-231,254r704,0"},"f":{"d":"746,-1237v-84,-78,-240,-58,-308,13v-36,38,-69,89,-74,155r235,0r0,175r-235,0r0,899r-175,0r0,-899r-132,0r0,-175r131,0v12,-184,117,-305,256,-364v147,-62,308,-31,417,65","w":680,"k":{"o":86}},"g":{"d":"75,-532v0,-289,250,-537,537,-537v139,0,260,47,363,140r0,-140r175,0r0,1074v-7,251,-147,416,-330,495v-208,90,-436,37,-580,-108r121,-126v98,98,249,132,391,72v125,-53,217,-163,223,-333r0,-140v-103,93,-224,140,-363,140v-289,0,-537,-248,-537,-537xm278,-391v66,158,262,280,474,193v126,-51,223,-163,223,-334v0,-169,-100,-279,-223,-334v-145,-66,-319,-1,-396,78v-83,85,-138,254,-78,397","w":1290},"h":{"d":"572,-894v-137,0,-236,89,-236,219r0,680r-175,0r0,-1469r175,0r0,469v109,-78,258,-99,391,-43v139,59,255,180,255,363r0,680r-175,0r0,-680v-18,-127,-99,-219,-235,-219","w":1021},"i":{"d":"126,5r0,-1074r175,0r0,1074r-175,0xm213,-1289v-58,0,-87,-29,-87,-87v0,-59,29,-88,87,-88v59,0,88,29,88,88v0,58,-29,87,-88,87","w":433},"j":{"d":"-105,224v135,-6,235,-88,235,-219r0,-1074r175,0r0,1074v-12,182,-114,305,-253,363v-160,67,-331,26,-441,-84r120,-127v44,43,100,70,164,67xm217,-1464v59,0,88,29,88,88v0,58,-29,87,-88,87v-58,0,-87,-29,-87,-87v0,-59,29,-88,87,-88","w":418},"k":{"d":"161,5r0,-1469r175,0r0,864r413,-469r233,0r-319,363r314,711r-191,0r-251,-567r-199,228r0,339r-175,0","w":989},"l":{"d":"303,-389v15,130,98,213,236,220r0,174v-188,-6,-311,-107,-375,-241v-22,-48,-36,-98,-36,-153r0,-1075r175,0r0,1075","w":549},"m":{"d":"662,-877v-161,-60,-313,48,-323,202r-3,0r0,680r-175,0r0,-1074r175,0r0,77v178,-129,439,-92,562,80v105,-143,295,-201,479,-126v140,57,255,181,255,363r-1,680r-174,0r0,-680v-14,-152,-161,-263,-325,-202v-80,30,-146,101,-146,202r-1,680r-175,0r0,-680v-10,-100,-68,-172,-148,-202","w":1778},"n":{"d":"662,-877v-161,-60,-313,48,-323,202r-3,0r0,680r-175,0r0,-1074r175,0r0,77v108,-81,259,-103,394,-46v139,59,256,181,256,363r-1,680r-175,0r0,-680v-10,-100,-68,-172,-148,-202","w":1121},"o":{"d":"96,-532v0,-358,377,-655,744,-494v183,80,331,242,331,494v0,252,-146,414,-330,494v-367,160,-745,-134,-745,-494xm300,-391v66,158,261,280,473,193v126,-51,223,-163,223,-334v0,-169,-100,-279,-223,-334v-145,-66,-318,-1,-395,78v-83,85,-138,254,-78,397","w":1266,"k":{"x":128}},"p":{"d":"906,-38v-202,87,-426,40,-570,-97r0,533r-175,0r0,-1467r175,0r0,140v144,-138,368,-185,570,-97v184,80,330,242,330,494v0,252,-146,415,-330,494xm364,-391v66,158,262,280,474,193v126,-51,223,-163,223,-334v0,-169,-100,-279,-223,-334v-145,-66,-319,-1,-396,78v-83,85,-138,254,-78,397","w":1254},"q":{"d":"18,-532v0,-289,250,-537,537,-537v139,0,260,47,363,140r0,-140r175,0r0,1467r-175,0r0,-533v-103,93,-224,140,-363,140v-289,0,-537,-248,-537,-537xm222,-391v66,158,261,280,473,193v126,-51,223,-163,223,-334v0,-169,-100,-279,-223,-334v-145,-66,-318,-1,-395,78v-83,85,-138,254,-78,397"},"r":{"d":"734,-832v-82,-87,-245,-74,-321,2v-37,37,-74,89,-74,155r-3,680r-175,0r0,-1074r175,0r0,77v158,-118,393,-97,525,39","w":861,"k":{"c":85}},"s":{"d":"272,-658v0,24,11,39,33,39r390,0v147,0,224,69,224,213v0,192,-113,315,-252,378v-153,70,-349,12,-434,-72v-64,-63,-120,-149,-133,-257r177,0v24,135,171,231,323,169v82,-33,141,-108,144,-220v0,-24,-16,-36,-48,-36r-394,0v-139,0,-207,-74,-205,-214v3,-192,113,-314,252,-378v152,-69,345,-12,431,72v64,63,123,149,136,257r-177,0v-26,-132,-171,-230,-323,-169v-82,33,-140,108,-144,218","w":1015},"t":{"d":"357,-389v15,130,97,213,235,220r0,174v-188,-6,-309,-107,-374,-241v-22,-48,-36,-98,-36,-153r0,-505r-168,0r0,-175r168,0r0,-220r175,0r0,220r234,0r0,175r-234,0r0,505","w":650},"u":{"d":"547,-169v137,0,220,-90,235,-220r4,0r0,-680r175,0r0,1074r-175,0r0,-76v-110,80,-261,102,-396,45v-140,-59,-254,-179,-254,-363r0,-680r175,0r0,680v15,130,98,220,236,220","w":1124},"v":{"d":"373,5r-319,-1074r182,0r262,882r263,-882r182,0r-319,1074r-251,0","w":997},"w":{"d":"416,5r-319,-1074r182,0r262,882r263,-882r263,0r262,882r262,-882r182,0r-319,1074r-250,0r-269,-903r-268,903r-251,0","w":1871,"k":{"a":85}},"x":{"d":"917,-1069r-298,537r298,537r-200,0r-199,-357r-198,357r-200,0r298,-537r-298,-537r200,0r198,357r199,-357r200,0","w":1037},"y":{"d":"367,5r-319,-1074r182,0r262,880r263,-880r182,0r-319,1074r-2,0r-117,393r-182,0r117,-393r-67,0","w":966},"z":{"d":"936,-1069r-500,900r500,0r0,174r-797,0r500,-899r-500,0r0,-175r797,0","w":1076,"k":{"w":43,"e":128}},"{":{"d":"651,-1464r0,175v-111,3,-183,65,-219,145v-12,29,-18,59,-18,91v0,135,-52,243,-157,324v105,82,157,190,157,323v0,111,65,182,145,218v29,12,59,19,92,19r0,174v-193,-5,-316,-112,-379,-251v-22,-50,-33,-103,-33,-160v0,-110,-65,-182,-145,-218v-29,-12,-59,-18,-91,-18r0,-175v111,-3,182,-63,217,-144v33,-78,14,-173,52,-251v67,-138,187,-246,379,-252","w":786},"|":{"d":"161,5r0,-1469r175,0r0,1469r-175,0","w":506},"}":{"d":"135,5r0,-175v141,-8,237,-94,237,-236v0,-135,52,-243,157,-324v-105,-82,-157,-190,-157,-323v0,-111,-65,-183,-145,-219v-29,-12,-59,-18,-92,-18r0,-174v193,5,313,114,379,252v38,78,19,171,52,250v35,81,106,141,217,145r0,175v-141,8,-230,95,-236,236v-8,192,-112,315,-251,378v-50,22,-104,33,-161,33","w":786},"~":{"d":"534,-796v40,0,69,-55,33,-86r187,0v16,122,-49,202,-135,240v-92,40,-187,10,-249,-55v-41,-43,-111,31,-64,71r0,2r-186,0v-16,-120,48,-202,132,-240v92,-41,199,-6,247,50v11,13,24,18,35,18xm313,-624r-1,-1","w":874},"\u00c7":{"d":"809,-169v248,-8,401,-132,494,-298r192,0v-104,250,-305,435,-623,469r0,177r-175,0r0,-181v-334,-40,-623,-363,-623,-727v0,-465,456,-863,958,-699v219,71,381,228,463,437r-192,0v-95,-164,-246,-290,-494,-298v-302,-9,-560,259,-560,560v0,303,258,568,560,560","w":1537},"\u00d6":{"d":"1536,-729v0,396,-339,734,-734,734v-397,0,-735,-338,-735,-734v0,-395,339,-735,735,-735v303,0,582,213,680,453v36,85,54,179,54,282xm242,-729v0,303,258,560,560,560v300,0,559,-260,559,-560v0,-300,-261,-560,-559,-560v-302,0,-560,259,-560,560xm1033,-1591v-58,0,-87,-29,-87,-87v0,-59,29,-88,87,-88v59,0,88,29,88,88v0,58,-29,87,-88,87xm547,-1591v-58,0,-87,-29,-87,-87v0,-59,29,-88,87,-88v59,0,88,29,88,88v0,58,-29,87,-88,87","w":1602},"\u00dc":{"d":"943,-406v-6,192,-112,315,-252,378v-98,43,-222,44,-319,0v-140,-63,-251,-185,-251,-378r0,-1058r165,0r10,1058v3,111,62,187,144,218v170,63,328,-43,328,-218r0,-1058r175,0r0,1058xm779,-1573v-58,0,-87,-29,-87,-87v0,-59,29,-88,87,-88v59,0,88,29,88,88v0,58,-29,87,-88,87xm293,-1573v-58,0,-87,-29,-87,-87v0,-59,29,-88,87,-88v59,0,88,29,88,88v0,58,-29,87,-88,87","w":1066},"\u00e7":{"d":"1115,-357v-70,187,-214,323,-436,357r0,179r-175,0r0,-183v-199,-39,-337,-171,-402,-345v-138,-368,158,-729,504,-720v269,7,430,159,509,362r-191,0v-63,-102,-160,-187,-318,-187v-170,0,-282,97,-334,222v-86,207,34,410,188,474v49,20,96,31,156,29v153,-5,247,-88,308,-188r191,0","w":1155},"\u00f6":{"d":"63,-532v0,-358,378,-655,745,-494v183,80,330,242,330,494v0,252,-146,414,-330,494v-367,160,-745,-134,-745,-494xm266,-391v66,158,262,280,474,193v126,-51,223,-163,223,-334v0,-169,-100,-279,-223,-334v-145,-66,-319,-1,-396,78v-83,85,-138,254,-78,397xm851,-1289v-58,0,-87,-29,-87,-87v0,-59,29,-88,87,-88v59,0,88,29,88,88v0,58,-29,87,-88,87xm365,-1289v-58,0,-87,-29,-87,-87v0,-59,29,-88,87,-88v59,0,88,29,88,88v0,58,-29,87,-88,87","w":1202},"\u00fc":{"d":"514,-169v137,0,220,-90,235,-220r4,0r0,-680r175,0r0,1074r-175,0r0,-76v-110,80,-260,102,-395,45v-140,-59,-255,-179,-255,-363r0,-680r175,0r0,680v15,130,98,220,236,220xm269,-1289v-58,0,-87,-29,-87,-87v0,-59,29,-88,87,-88v59,0,88,29,88,88v0,58,-29,87,-88,87xm755,-1289v-58,0,-87,-29,-87,-87v0,-59,29,-88,87,-88v59,0,88,29,88,88v0,58,-29,87,-88,87","w":1049},"\u011e":{"d":"804,-1704v89,0,143,-60,148,-149r175,0v-4,152,-87,251,-198,297v-187,77,-368,-30,-423,-171v-15,-40,-25,-81,-25,-126r174,0v5,90,59,149,149,149xm1541,-729v11,396,-339,734,-734,734v-397,0,-735,-338,-735,-734v0,-465,456,-863,958,-699v219,71,381,228,463,437r-192,0v-95,-164,-246,-290,-494,-298v-302,-9,-560,259,-560,560v0,367,373,673,757,523v183,-72,315,-223,356,-436r-509,0r0,-175r685,0","w":1600},"\u011f":{"d":"579,-1312v89,0,143,-60,148,-149r175,0v-4,152,-87,251,-198,297v-187,77,-367,-30,-422,-171v-15,-40,-26,-81,-26,-126r174,0v5,90,59,149,149,149xm55,-532v0,-289,250,-537,537,-537v139,0,260,47,363,140r0,-140r175,0r0,1074v-7,251,-147,416,-330,495v-208,90,-436,37,-580,-108r121,-126v98,98,249,132,391,72v125,-53,217,-163,223,-333r0,-140v-103,93,-224,140,-363,140v-289,0,-537,-248,-537,-537xm258,-391v66,158,262,280,474,193v126,-51,223,-163,223,-334v0,-169,-100,-279,-223,-334v-145,-66,-319,-1,-396,78v-83,85,-138,254,-78,397","w":1241},"\u0130":{"d":"179,-1591v-58,0,-87,-29,-87,-87v0,-59,29,-88,87,-88v59,0,88,29,88,88v0,58,-29,87,-88,87xm190,141v59,0,88,29,88,88v0,58,-29,87,-88,87v-58,0,-87,-29,-87,-87v0,-59,29,-88,87,-88xm101,5r0,-1469r175,0r0,1469r-175,0","w":383},"\u0131":{"d":"161,5r0,-1074r175,0r0,1074r-175,0","w":506},"\u015e":{"d":"324,-28v-156,-71,-270,-217,-247,-439r179,0v-31,137,38,240,136,279v198,78,390,-102,309,-309v-32,-82,-107,-141,-217,-145v-193,-5,-315,-113,-378,-252v-44,-97,-43,-220,0,-318v63,-140,185,-252,378,-252v192,0,316,113,378,252v30,67,40,140,28,221r-178,0v31,-137,-39,-240,-137,-279v-197,-79,-388,102,-309,309v31,83,107,141,218,144v192,6,315,114,378,253v43,98,43,219,0,317v-63,140,-185,252,-378,252v-57,0,-110,-11,-160,-33xm396,179r0,-348r175,0r0,348r-175,0","w":971},"\u015f":{"d":"244,-658v0,24,11,39,33,39r390,0v147,0,224,69,224,213v0,192,-113,315,-252,378v-153,70,-349,12,-434,-72v-64,-63,-120,-149,-133,-257r177,0v24,135,171,231,323,169v82,-33,141,-108,144,-220v0,-24,-16,-36,-48,-36r-394,0v-139,0,-207,-74,-205,-214v3,-192,113,-314,252,-378v152,-69,345,-12,431,72v64,63,123,149,136,257r-177,0v-26,-132,-171,-230,-323,-169v-82,33,-140,108,-144,218xm393,179r0,-348r175,0r0,348r-175,0","w":961},"\u20a3":{"d":"34,-277r0,-155r316,0r0,-1032r949,0r0,175r-774,0r0,472r608,0r0,175r-608,0r0,210r312,0r0,155r-312,0r0,282r-175,0r0,-282r-316,0","w":1307},"\u20a4":{"d":"631,-1289v-137,0,-235,90,-235,220r0,380r237,0r0,155r-237,0r0,78r236,0r0,154r-236,0r0,153r648,0r0,155r-955,0r0,-155r132,0r0,-153r-133,0r0,-154r132,0r0,-78r-131,0r0,-155r131,0r0,-380v12,-184,117,-303,256,-364v161,-71,354,-4,438,85v64,68,122,161,128,279r-175,0v-18,-127,-99,-220,-236,-220","w":1110},"\u20a7":{"d":"608,-674v-79,36,-165,33,-272,32r0,647r-175,0r0,-1469v159,7,330,-22,447,32v139,64,252,186,252,379v0,192,-113,315,-252,379xm336,-1289r0,472v76,-2,148,4,205,-19v102,-42,182,-176,125,-308v-35,-81,-107,-145,-217,-145r-113,0xm1172,-389v15,130,97,213,235,220r0,174v-188,-6,-308,-107,-373,-241v-22,-48,-37,-98,-37,-153r0,-505r-86,0r0,-175r86,0r0,-220r175,0r0,220r117,0r0,175r-117,0r0,505xm1539,-658v0,24,11,39,33,39r390,0v147,0,224,69,224,213v0,192,-113,315,-252,378v-153,70,-349,12,-434,-72v-64,-63,-120,-149,-133,-257r177,0v24,135,171,231,323,169v82,-33,141,-108,144,-220v0,-24,-16,-36,-48,-36r-394,0v-139,0,-207,-74,-205,-214v3,-192,113,-314,252,-378v152,-69,346,-12,432,72v64,63,122,149,135,257r-177,0v-26,-132,-171,-230,-323,-169v-82,33,-140,108,-144,218","w":2231},"\u20ac":{"d":"877,-169v248,0,401,-132,494,-298r192,0v-82,208,-245,363,-462,437v-234,80,-507,7,-651,-100v-118,-88,-222,-209,-271,-362r-100,0r0,-154r67,0v-5,-49,-5,-104,-1,-155r-66,0r0,-155r97,0v82,-271,374,-518,701,-508v269,8,453,128,579,284v46,58,81,121,107,189r-192,0v-103,-198,-352,-358,-653,-275v-166,46,-288,159,-355,310r519,0r0,155r-561,0v-6,49,-5,107,1,155r560,0r0,154r-515,0v91,183,249,323,510,323","w":1631},"?":{"d":"953,-1279v109,114,177,345,99,537v-71,174,-208,306,-413,343r0,48r-183,0r0,-215v93,0,167,0,237,-30v153,-65,273,-270,189,-473v-20,-47,-50,-88,-86,-122v-62,59,-112,148,-113,262r-175,0v0,-135,43,-251,130,-350v-204,-46,-362,63,-424,210v-19,44,-28,91,-28,140r-175,0v-8,-288,250,-537,537,-537v88,0,178,26,246,61v132,-73,314,-84,458,-19v183,82,331,243,331,495v0,226,-123,377,-271,467v-54,32,-113,53,-176,63r0,48r-183,0r0,-215v93,0,167,0,237,-30v153,-65,274,-270,189,-473v-60,-144,-219,-257,-426,-210xm953,4r0,-173r175,0r0,173r-175,0xm456,4r0,-173r175,0r0,173r-175,0","w":1126},"\u00a0":{"w":600}}});
